{"learner":{"attributes":{"scikit_learn":"{\"_estimator_type\": \"classifier\"}"},"feature_names":["log_market_cap","market_cap_rank","dollar_volume","dollar_volume_rank_market","turnover_ratio","volume_change_5d","volume_zscore_20d","volatility_expansion_5_20","momentum_20d_cs","momentum_60d_cs","volume_change_5d_cs","volume_zscore_20d_cs","rolling_volatility_20d_cs","turnover_ratio_cs","momentum_20d_sector_neutral","momentum_60d_sector_neutral","volume_change_5d_sector_neutral","volume_zscore_20d_sector_neutral","rolling_volatility_20d_sector_neutral","turnover_ratio_sector_neutral","volume_acceleration","signed_volume_proxy","price_volume_trend","volume_imbalance_proxy","liquidity_shock_5d","vwap_deviation","turnover_acceleration","vix_level","regime_bull_high_vol","regime_bull_low_vol"],"feature_types":["float","float","float","float","float","float","float","float","float","float","float","float","float","float","float","float","float","float","float","float","float","float","float","float","float","float","float","float","float","float"],"gradient_booster":{"model":{"cats":{"enc":[],"feature_segments":[],"sorted_idx":[]},"gbtree_model_param":{"num_parallel_tree":"1","num_trees":"200"},"iteration_indptr":[0,1,2,3,4,5,6,7,8,9,10,11,12,13,14,15,16,17,18,19,20,21,22,23,24,25,26,27,28,29,30,31,32,33,34,35,36,37,38,39,40,41,42,43,44,45,46,47,48,49,50,51,52,53,54,55,56,57,58,59,60,61,62,63,64,65,66,67,68,69,70,71,72,73,74,75,76,77,78,79,80,81,82,83,84,85,86,87,88,89,90,91,92,93,94,95,96,97,98,99,100,101,102,103,104,105,106,107,108,109,110,111,112,113,114,115,116,117,118,119,120,121,122,123,124,125,126,127,128,129,130,131,132,133,134,135,136,137,138,139,140,141,142,143,144,145,146,147,148,149,150,151,152,153,154,155,156,157,158,159,160,161,162,163,164,165,166,167,168,169,170,171,172,173,174,175,176,177,178,179,180,181,182,183,184,185,186,187,188,189,190,191,192,193,194,195,196,197,198,199,200],"tree_info":[0,0,0,0,0,0,0,0,0,0,0,0,0,0,0,0,0,0,0,0,0,0,0,0,0,0,0,0,0,0,0,0,0,0,0,0,0,0,0,0,0,0,0,0,0,0,0,0,0,0,0,0,0,0,0,0,0,0,0,0,0,0,0,0,0,0,0,0,0,0,0,0,0,0,0,0,0,0,0,0,0,0,0,0,0,0,0,0,0,0,0,0,0,0,0,0,0,0,0,0,0,0,0,0,0,0,0,0,0,0,0,0,0,0,0,0,0,0,0,0,0,0,0,0,0,0,0,0,0,0,0,0,0,0,0,0,0,0,0,0,0,0,0,0,0,0,0,0,0,0,0,0,0,0,0,0,0,0,0,0,0,0,0,0,0,0,0,0,0,0,0,0,0,0,0,0,0,0,0,0,0,0,0,0,0,0,0,0,0,0,0,0,0,0,0,0,0,0,0,0],"trees":[{"base_weights":[-1.7517398E-3,-6.476883E-2,4.4077687E-2,-1.2991928E-1,-3.0658467E-2,4.9638424E-2,-7.5389904E-1,-9.955607E-2,-2.8631583E-1,9.878503E-3,-9.899899E-2,1.8203799E-2,1.0723475E-1,-9.513654E-2,5.7128984E-2,-1.4165018E-1,-2.8202433E-2,-3.9926684E-1,-1.255185E-1,1.893769E-1,-4.132137E-3,1.6085789E-2,-1.2265992E-1,2.0430965E-2,-1.542188E0,2.3782071E-1,8.6507894E-2,9.344232E-1,-4.172724E-2,-2.3105752E-3,-9.479406E-3,1.1841384E-3,-8.750291E-3,-2.1039044E-2,3.740546E-2,-1.7551543E-2,-2.1175633E-3,-3.799399E-2,1.0820718E-2,1.7542088E-3,-3.1785143E-3,-8.772576E-4,2.1539625E-2,-9.712639E-3,-3.8480745E-3,6.852217E-4,1.575212E-2,-9.38007E-2,5.1998156E-3,8.572724E-3,2.0858651E-2,3.3049546E-3,1.088748E-2,7.476406E-2,1.39624765E-2,2.2724664E-2,-1.2354556E-2],"categories":[],"categories_nodes":[],"categories_segments":[],"categories_sizes":[],"default_left":[0,0,0,0,0,0,0,0,0,0,0,0,0,0,0,0,0,0,0,0,0,0,0,0,0,0,0,0,0,0,0,0,0,0,0,0,0,0,0,0,0,0,0,0,0,0,0,0,0,0,0,0,0,0,0,0,0],"id":0,"left_children":[1,3,5,7,9,11,13,15,17,19,21,23,25,-1,27,29,31,33,35,37,39,41,43,45,47,49,51,53,55,-1,-1,-1,-1,-1,-1,-1,-1,-1,-1,-1,-1,-1,-1,-1,-1,-1,-1,-1,-1,-1,-1,-1,-1,-1,-1,-1,-1],"loss_changes":[1.731336E2,5.607479E1,1.5396973E2,4.111763E1,4.5913715E1,6.2388664E1,2.2401653E2,2.1799614E1,2.548713E1,2.6175692E1,1.6814335E1,7.737706E1,3.2881668E1,0E0,1.241477E1,2.0867638E1,2.0567638E1,2.0690933E1,1.0883302E1,1.9450947E1,2.2494137E1,1.4726755E1,1.6705193E1,4.4093876E1,1.7810623E1,1.9694649E1,2.8090874E1,4.7303457E0,1.3153645E1,0E0,0E0,0E0,0E0,0E0,0E0,0E0,0E0,0E0,0E0,0E0,0E0,0E0,0E0,0E0,0E0,0E0,0E0,0E0,0E0,0E0,0E0,0E0,0E0,0E0,0E0,0E0,0E0],"parents":[2147483647,0,0,1,1,2,2,3,3,4,4,5,5,6,6,7,7,8,8,9,9,10,10,11,11,12,12,14,14,15,15,16,16,17,17,18,18,19,19,20,20,21,21,22,22,23,23,24,24,25,25,26,26,27,27,28,28],"right_children":[2,4,6,8,10,12,14,16,18,20,22,24,26,-1,28,30,32,34,36,38,40,42,44,46,48,50,52,54,56,-1,-1,-1,-1,-1,-1,-1,-1,-1,-1,-1,-1,-1,-1,-1,-1,-1,-1,-1,-1,-1,-1,-1,-1,-1,-1,-1,-1],"split_conditions":[4.22E-1,-5.8500046E-1,2.5137566E10,1.983E1,1.8612203E8,1.9512114E-1,9.84E-1,2.4254473E-1,-1.2726378E-1,-4.2430463E-1,-1.3873371E-1,9.95992E-1,5.04E-1,-9.513654E-2,-8.6841416E-1,-1.4727062E-1,4.1468254E-1,1.2654436E-2,2.113E1,-2.221454E0,1.687E1,2.476E1,1.9107641E-1,2.0983224E0,-7.767614E-1,2.0210147E-1,2.6552732E1,-3.0551636E-1,8.735214E-1,-2.3105752E-3,-9.479406E-3,1.1841384E-3,-8.750291E-3,-2.1039044E-2,3.740546E-2,-1.7551543E-2,-2.1175633E-3,-3.799399E-2,1.0820718E-2,1.7542088E-3,-3.1785143E-3,-8.772576E-4,2.1539625E-2,-9.712639E-3,-3.8480745E-3,6.852217E-4,1.575212E-2,-9.38007E-2,5.1998156E-3,8.572724E-3,2.0858651E-2,3.3049546E-3,1.088748E-2,7.476406E-2,1.39624765E-2,2.2724664E-2,-1.2354556E-2],"split_indices":[1,19,2,27,2,19,1,1,18,26,26,3,3,0,10,26,3,25,27,15,27,27,13,15,12,18,0,21,18,0,0,0,0,0,0,0,0,0,0,0,0,0,0,0,0,0,0,0,0,0,0,0,0,0,0,0,0],"split_type":[0,0,0,0,0,0,0,0,0,0,0,0,0,0,0,0,0,0,0,0,0,0,0,0,0,0,0,0,0,0,0,0,0,0,0,0,0,0,0,0,0,0,0,0,0,0,0,0,0,0,0,0,0,0,0,0,0],"sum_hessian":[5.994584E4,2.5240723E4,3.4705117E4,8.671845E3,1.6568877E4,3.4466004E4,2.3911475E2,7.263891E3,1.4079536E3,1.0399617E4,6.1692603E3,2.2298887E4,1.2167117E4,9.844431E1,1.4067043E2,4.5671665E3,2.6967246E3,8.257829E2,5.8217065E2,7.525743E2,9.647043E3,1.0514053E3,5.117855E3,2.2268154E4,3.0732616E1,1.6645583E3,1.0502559E4,1.3492368E1,1.2717806E2,1.5283855E3,3.038781E3,1.9926228E3,7.041017E2,8.112911E2,1.4491802E1,1.5566194E2,4.2650873E2,1.9988693E1,7.325856E2,5.8114624E3,3.8355803E3,9.7319946E2,7.8205765E1,1.9918733E3,3.1259817E3,2.1772434E4,4.9571957E2,2.5485584E1,5.2470317E0,1.2168116E3,4.4774673E2,9.091107E3,1.4114515E3,6.496325E0,6.9960427E0,3.6729225E1,9.044884E1],"tree_param":{"num_deleted":"0","num_feature":"30","num_nodes":"57","size_leaf_vector":"1"}},{"base_weights":[2.722313E-3,-3.1741604E-2,6.7415334E-2,-2.639186E-2,-1.7352289E0,2.14075E-1,5.693099E-2,-9.775522E-2,-1.0540414E-2,1.6078386E-2,-9.17666E-2,1.6047263E-1,5.797267E-1,1.6056538E-1,4.9445096E-2,-3.1156856E-1,4.0523853E-2,-3.8375296E-2,6.048894E-2,3.111841E-1,2.623809E-2,1.1719596E-1,8.701262E-1,2.37209E-1,-3.9946967E-1,-7.258276E-2,6.3138686E-2,-9.749532E-3,-2.6506333E-2,-2.15735E-3,9.211346E-3,-1.3445801E-3,-7.0072077E-3,-3.000161E-3,5.344911E-3,2.3824442E-2,6.250096E-3,4.2137387E-3,-1.8059308E-2,5.3508054E-2,-4.380019E-3,4.8524622E-2,-1.3503204E-2,9.644367E-3,3.343869E-2,-3.3540603E-2,-8.127043E-3,-1.5460521E-2,-8.425586E-4,2.5692473E-3,1.1543816E-2],"categories":[],"categories_nodes":[],"categories_segments":[],"categories_sizes":[],"default_left":[0,0,0,0,0,0,0,0,0,0,0,0,0,0,0,0,0,0,0,0,0,0,0,0,0,0,0,0,0,0,0,0,0,0,0,0,0,0,0,0,0,0,0,0,0,0,0,0,0,0,0],"id":1,"left_children":[1,3,5,7,9,11,13,15,17,-1,-1,19,21,23,25,27,29,31,33,35,37,39,41,43,45,47,49,-1,-1,-1,-1,-1,-1,-1,-1,-1,-1,-1,-1,-1,-1,-1,-1,-1,-1,-1,-1,-1,-1,-1,-1],"loss_changes":[1.3399063E2,3.5708078E2,3.207921E1,4.4202057E1,2.5998138E1,2.71282E1,1.5096489E1,2.1003387E2,6.323516E1,0E0,0E0,2.4562656E1,2.3631298E1,5.639777E1,3.0391712E1,7.090637E1,5.1889496E1,2.6836464E1,5.0362823E1,1.7499813E1,1.4498853E1,1.3799094E1,1.2772232E1,2.1875954E1,9.975946E0,2.415566E1,3.219864E1,0E0,0E0,0E0,0E0,0E0,0E0,0E0,0E0,0E0,0E0,0E0,0E0,0E0,0E0,0E0,0E0,0E0,0E0,0E0,0E0,0E0,0E0,0E0,0E0],"parents":[2147483647,0,0,1,1,2,2,3,3,4,4,5,5,6,6,7,7,8,8,11,11,12,12,13,13,14,14,15,15,16,16,17,17,18,18,19,19,20,20,21,21,22,22,23,23,24,24,25,25,26,26],"right_children":[2,4,6,8,10,12,14,16,18,-1,-1,20,22,24,26,28,30,32,34,36,38,40,42,44,46,48,50,-1,-1,-1,-1,-1,-1,-1,-1,-1,-1,-1,-1,-1,-1,-1,-1,-1,-1,-1,-1,-1,-1,-1,-1],"split_conditions":[1.1964692E-1,9.95992E-1,-4.2430463E-1,1E0,-1.7790541E-1,2.16E1,-9.8166376E-1,-4.1785073E-1,3.9678356E-1,1.6078386E-2,-9.17666E-2,1.482E1,2.640571E-1,2.238E1,-6.790898E-1,2.339E1,3.0642658E-1,2.744286E0,1.375E1,7.513077E-2,1.4278604E0,5.7474505E-2,1.0189769E0,1.0229231E0,9.253751E-1,1E0,2.339E1,-9.749532E-3,-2.6506333E-2,-2.15735E-3,9.211346E-3,-1.3445801E-3,-7.0072077E-3,-3.000161E-3,5.344911E-3,2.3824442E-2,6.250096E-3,4.2137387E-3,-1.8059308E-2,5.3508054E-2,-4.380019E-3,4.8524622E-2,-1.3503204E-2,9.644367E-3,3.343869E-2,-3.3540603E-2,-8.127043E-3,-1.5460521E-2,-8.425586E-4,2.5692473E-3,1.1543816E-2],"split_indices":[19,3,26,29,16,27,12,18,15,0,0,27,18,27,18,27,18,24,27,15,4,13,15,8,7,29,27,0,0,0,0,0,0,0,0,0,0,0,0,0,0,0,0,0,0,0,0,0,0,0,0],"split_type":[0,0,0,0,0,0,0,0,0,0,0,0,0,0,0,0,0,0,0,0,0,0,0,0,0,0,0,0,0,0,0,0,0,0,0,0,0,0,0,0,0,0,0,0,0,0,0,0,0,0,0],"sum_hessian":[6.0093383E4,3.920609E4,2.0887297E4,3.9084418E4,1.2166906E2,1.3916288E3,1.9495668E4,7.101577E3,3.1982842E4,5.497706E0,1.1617135E2,1.2152001E3,1.7642877E2,1.311096E3,1.8184572E4,2.788831E3,4.312746E3,2.2979525E4,9.003316E3,5.714937E2,6.437063E2,6.8721405E1,1.0770737E2,1.1539298E3,1.5716612E2,1.8335576E3,1.6351014E4,1.8202614E3,9.685697E2,2.7257102E3,1.5870361E3,2.0651443E4,2.3280815E3,2.5028174E3,6.500499E3,3.016091E2,2.698846E2,5.6074634E2,8.2959984E1,1.1495051E1,5.7226353E1,9.9210785E1,8.496576E0,1.047981E3,1.05948875E2,7.221204E1,8.495408E1,3.483167E2,1.485241E3,1.5282068E4,1.0689452E3],"tree_param":{"num_deleted":"0","num_feature":"30","num_nodes":"51","size_leaf_vector":"1"}},{"base_weights":[-1.6152633E-3,-5.973045E-2,4.0651996E-2,-1.1265295E-1,-2.9219009E-2,4.651405E-2,-5.223511E-1,-2.2656561E-1,-8.73669E-2,-6.9986866E-4,-1.0206286E-1,1.7066697E-2,1.0085519E-1,-1.7469592E0,1.0367621E-1,-4.3115842E-1,-4.444253E-2,1.7837118E-3,-1.1747681E-1,-6.5467716E-3,4.7850776E-1,-1.1397856E-1,5.0877917E-1,1.964099E-1,6.102381E-3,1.5760419E-1,6.824477E-2,-8.88099E-2,-5.234599E-2,-1.9985297E-1,4.1547966E-1,2.257288E-4,-2.3869043E-2,-2.01089E-2,3.7636014E-4,-2.659688E-2,1.3311122E-3,-3.3463836E-2,-5.6102974E-3,-1.5488964E-3,4.381304E-3,1.616911E-2,4.636933E-2,-7.438529E-3,-2.4381417E-3,1.2096007E-2,5.500399E-2,5.8399946E-3,1.9575642E-2,-4.9964915E-4,6.376316E-3,6.3307486E-3,1.5517076E-2,1.0179301E-3,8.027735E-3,-2.0516958E-4,-5.2738633E-2,3.224924E-2,7.865726E-5],"categories":[],"categories_nodes":[],"categories_segments":[],"categories_sizes":[],"default_left":[0,0,0,0,0,0,0,0,0,0,0,0,0,0,0,0,0,0,0,0,0,0,0,0,0,0,0,0,0,0,0,0,0,0,0,0,0,0,0,0,0,0,0,0,0,0,0,0,0,0,0,0,0,0,0,0,0,0,0],"id":2,"left_children":[1,3,5,7,9,11,13,15,17,19,21,23,25,27,29,31,33,35,37,39,41,43,45,47,49,51,53,-1,-1,55,57,-1,-1,-1,-1,-1,-1,-1,-1,-1,-1,-1,-1,-1,-1,-1,-1,-1,-1,-1,-1,-1,-1,-1,-1,-1,-1,-1,-1],"loss_changes":[1.4766025E2,4.085495E1,1.1483028E2,2.6606834E1,3.3349438E1,5.5102043E1,2.7519873E2,6.252661E1,2.034845E1,3.229534E1,3.28964E1,4.3908092E1,2.2365494E1,3.4274292E-1,2.2641502E1,1.59734955E1,1.659082E1,2.532266E1,1.6320915E1,2.6235052E1,9.249523E0,1.0028244E1,1.3241064E1,1.9886375E1,4.1161755E1,2.0814667E1,3.3968567E1,0E0,0E0,2.016901E1,1.1138918E1,0E0,0E0,0E0,0E0,0E0,0E0,0E0,0E0,0E0,0E0,0E0,0E0,0E0,0E0,0E0,0E0,0E0,0E0,0E0,0E0,0E0,0E0,0E0,0E0,0E0,0E0,0E0,0E0],"parents":[2147483647,0,0,1,1,2,2,3,3,4,4,5,5,6,6,7,7,8,8,9,9,10,10,11,11,12,12,13,13,14,14,15,15,16,16,17,17,18,18,19,19,20,20,21,21,22,22,23,23,24,24,25,25,26,26,29,29,30,30],"right_children":[2,4,6,8,10,12,14,16,18,20,22,24,26,28,30,32,34,36,38,40,42,44,46,48,50,52,54,-1,-1,56,58,-1,-1,-1,-1,-1,-1,-1,-1,-1,-1,-1,-1,-1,-1,-1,-1,-1,-1,-1,-1,-1,-1,-1,-1,-1,-1,-1,-1],"split_conditions":[4.22E-1,-5.498294E-1,9.95992E-1,1E0,4.4532803E-1,1.9512114E-1,6.2949206E-3,-3.1208602E-1,-5.911208E-1,2.7338572E0,2.8161128E0,2.0436507E-1,6.8787277E-1,-6.4138865E-1,2.8941132E1,2.4E-2,2.2850243E1,3.2E-2,-1.0710809E0,4.9952468E-1,1.2222503E0,2.3924486E1,2.3964254E1,1.0663719E0,9.206349E-1,7.1428573E-1,2.5976665E1,-8.88099E-2,-5.234599E-2,2.8161128E0,4.053197E-2,2.257288E-4,-2.3869043E-2,-2.01089E-2,3.7636014E-4,-2.659688E-2,1.3311122E-3,-3.3463836E-2,-5.6102974E-3,-1.5488964E-3,4.381304E-3,1.616911E-2,4.636933E-2,-7.438529E-3,-2.4381417E-3,1.2096007E-2,5.500399E-2,5.8399946E-3,1.9575642E-2,-4.9964915E-4,6.376316E-3,6.3307486E-3,1.5517076E-2,1.0179301E-3,8.027735E-3,-2.0516958E-4,-5.2738633E-2,3.224924E-2,7.865726E-5],"split_indices":[1,19,3,29,3,19,19,18,18,18,9,3,3,12,0,3,0,1,12,13,24,0,0,7,1,1,0,0,0,9,10,0,0,0,0,0,0,0,0,0,0,0,0,0,0,0,0,0,0,0,0,0,0,0,0,0,0,0,0],"split_type":[0,0,0,0,0,0,0,0,0,0,0,0,0,0,0,0,0,0,0,0,0,0,0,0,0,0,0,0,0,0,0,0,0,0,0,0,0,0,0,0,0,0,0,0,0,0,0,0,0,0,0,0,0,0,0,0,0,0,0],"sum_hessian":[6.0110438E4,2.5311059E4,3.479938E4,9.253965E3,1.6057093E4,3.4441863E4,3.5751764E2,1.6788584E3,7.575106E3,1.1541037E4,4.516056E3,2.2339361E4,1.21025E4,1.20388306E2,2.3712933E2,7.8975244E2,8.891059E2,1.9118995E3,5.6632065E3,1.1403101E4,1.3793637E2,4.4306055E3,8.545073E1,1.285553E3,2.1053809E4,4.414113E3,7.688387E3,1.1394886E2,6.4394455E0,1.20178406E2,1.16950935E2,7.5630486E1,7.14122E2,1.1216942E2,7.7693646E2,8.393313E1,1.8279663E3,5.2212452E1,5.610994E3,9.05556E3,2.3475408E3,1.039545E2,3.398187E1,2.8873926E3,1.5432128E3,5.996587E1,2.548486E1,9.1450757E2,3.7104538E2,1.8589738E4,2.4640708E3,3.6716475E3,7.4246515E2,5.0638154E3,2.6245718E3,9.870081E1,2.1477598E1,7.471994E1,4.223099E1],"tree_param":{"num_deleted":"0","num_feature":"30","num_nodes":"59","size_leaf_vector":"1"}},{"base_weights":[-3.4476009E-3,-6.3383885E-2,3.9447647E-2,-1.2823051E-1,-3.8841728E-2,4.476723E-2,-4.839895E-1,1.2575512E-2,-1.57185E-1,-1.1453008E-2,-9.839523E-2,1.994583E-2,1.0205741E-1,-1.6744219E0,1.2040156E-1,3.252626E-2,-8.4790134E-1,-1.8413039E-1,-4.7304224E-2,-1.6336257E-2,4.967262E-1,-1.0765828E-1,4.358401E-1,1.4557108E-2,3.7458247E-1,4.2722788E-1,9.391566E-2,-8.548646E-2,-3.7151277E-2,-1.9986205E-1,3.93031E-1,1.30681535E-2,-9.192979E-4,-1.5366954E-2,-6.0996454E-2,-5.500357E-3,-1.1724373E-2,-5.2468195E-3,1.2567204E-2,7.7554467E-3,-1.3630474E-3,-3.4372613E-2,2.7935652E-2,-7.317918E-3,-2.5072217E-3,3.035134E-2,-3.0433135E-3,2.498984E-4,7.943332E-3,4.315884E-2,1.4160397E-2,4.872939E-2,1.7646102E-2,3.5367755E-4,5.9924615E-3,3.1701606E-3,-3.583071E-2,7.038983E-2,1.51429055E-2],"categories":[],"categories_nodes":[],"categories_segments":[],"categories_sizes":[],"default_left":[0,0,0,0,0,0,0,0,0,0,0,0,0,0,0,0,0,0,0,0,0,0,0,0,0,0,0,0,0,0,0,0,0,0,0,0,0,0,0,0,0,0,0,0,0,0,0,0,0,0,0,0,0,0,0,0,0,0,0],"id":3,"left_children":[1,3,5,7,9,11,13,15,17,19,21,23,25,27,29,31,33,35,37,39,41,43,45,47,49,51,53,-1,-1,55,57,-1,-1,-1,-1,-1,-1,-1,-1,-1,-1,-1,-1,-1,-1,-1,-1,-1,-1,-1,-1,-1,-1,-1,-1,-1,-1,-1,-1],"loss_changes":[1.5422783E2,3.9803375E1,9.733124E1,2.8020775E1,2.9602154E1,4.920536E1,2.533595E2,2.0064302E1,1.6838684E1,3.0827745E1,2.8311886E1,4.6110867E1,2.7604088E1,2.3823853E0,2.0538565E1,1.3385629E1,4.797386E0,1.7015854E1,1.9361073E1,2.3069557E1,9.049509E0,1.2485977E1,8.379648E0,3.280293E1,1.5765736E1,9.8929825E0,2.297506E1,0E0,0E0,1.4822932E1,1.1020315E1,0E0,0E0,0E0,0E0,0E0,0E0,0E0,0E0,0E0,0E0,0E0,0E0,0E0,0E0,0E0,0E0,0E0,0E0,0E0,0E0,0E0,0E0,0E0,0E0,0E0,0E0,0E0,0E0],"parents":[2147483647,0,0,1,1,2,2,3,3,4,4,5,5,6,6,7,7,8,8,9,9,10,10,11,11,12,12,13,13,14,14,15,15,16,16,17,17,18,18,19,19,20,20,21,21,22,22,23,23,24,24,25,25,26,26,29,29,30,30],"right_children":[2,4,6,8,10,12,14,16,18,20,22,24,26,28,30,32,34,36,38,40,42,44,46,48,50,52,54,-1,-1,56,58,-1,-1,-1,-1,-1,-1,-1,-1,-1,-1,-1,-1,-1,-1,-1,-1,-1,-1,-1,-1,-1,-1,-1,-1,-1,-1,-1,-1],"split_conditions":[4.186508E-1,-7.05717E-1,9.95992E-1,7.5852716E-1,3.9880952E-1,3.1119373E-1,9.7604793E-1,3.1842988E0,3.2934132E-1,2.7338572E0,2.8161128E0,2.407613E0,2.7833003E-1,1.6196995E0,9.88E-1,-8.2729906E-1,-1.0731626E0,1.1422846E-1,2.7466068E-1,-4.2430463E-1,1.258E1,4.271752E-1,9.0873015E-1,9.562624E-1,3.0555555E-1,-7.944461E-1,-6.9192064E-1,-8.548646E-2,-3.7151277E-2,1.0663719E0,-1.3385164E0,1.30681535E-2,-9.192979E-4,-1.5366954E-2,-6.0996454E-2,-5.500357E-3,-1.1724373E-2,-5.2468195E-3,1.2567204E-2,7.7554467E-3,-1.3630474E-3,-3.4372613E-2,2.7935652E-2,-7.317918E-3,-2.5072217E-3,3.035134E-2,-3.0433135E-3,2.498984E-4,7.943332E-3,4.315884E-2,1.4160397E-2,4.872939E-2,1.7646102E-2,3.5367755E-4,5.9924615E-3,3.1701606E-3,-3.583071E-2,7.038983E-2,1.51429055E-2],"split_indices":[1,19,3,24,3,19,1,12,1,18,9,15,3,4,1,15,19,3,18,26,27,18,3,1,3,6,14,0,0,7,14,0,0,0,0,0,0,0,0,0,0,0,0,0,0,0,0,0,0,0,0,0,0,0,0,0,0,0,0],"split_type":[0,0,0,0,0,0,0,0,0,0,0,0,0,0,0,0,0,0,0,0,0,0,0,0,0,0,0,0,0,0,0,0,0,0,0,0,0,0,0,0,0,0,0,0,0,0,0,0,0,0,0,0,0,0,0,0,0,0,0],"sum_hessian":[5.9985016E4,2.5022984E4,3.4962035E4,6.867911E3,1.8155072E4,3.461139E4,3.50643E2,1.1709039E3,5.6970073E3,1.243779E4,5.717282E3,2.4150918E4,1.0460474E4,1.175355E2,2.3310751E2,1.1454249E3,2.5479048E1,4.5738135E3,1.1231937E3,1.23205625E4,1.1722739E2,5.620809E3,9.647299E1,2.3790738E4,3.6017844E2,2.5395854E2,1.0206515E4,1.1233412E2,5.2013783E0,1.0714367E2,1.25963844E2,2.080639E2,9.37361E2,1.124084E1,1.4238209E1,1.852375E3,2.7214385E3,9.423295E2,1.8086417E2,7.367126E2,1.1583851E4,5.2489705E0,1.1197842E2,3.3579912E3,2.2628179E3,7.173068E1,2.474231E1,2.2314352E4,1.476387E3,5.524319E1,3.0493524E2,2.8745874E1,2.2521268E2,2.3482395E3,7.858275E3,7.143439E1,3.5709274E1,8.996789E0,1.1696705E2],"tree_param":{"num_deleted":"0","num_feature":"30","num_nodes":"59","size_leaf_vector":"1"}},{"base_weights":[2.025513E-3,-5.451755E-2,4.314415E-2,-1.1077212E-1,-2.8766263E-2,4.7598343E-2,-6.1201465E-1,-8.424963E-2,-2.4617533E-1,1.7438773E-2,-7.593868E-2,2.0359725E-2,9.752386E-2,-8.121491E-2,9.1583975E-2,-1.2021221E-1,-2.1818247E-2,-4.979943E-1,-1.5348142E-1,1.2256838E-1,-1.3331876E-2,-1.15363985E-1,-6.2097986E-3,2.198523E-2,-1.2591816E0,2.9701596E-1,8.684485E-2,2.6771238E-1,-5.124341E-1,-1.7235611E-3,-8.559304E-3,-6.591167E-4,-3.5190683E-2,1.5383998E-2,-2.7472852E-2,-2.347815E-2,-5.64165E-3,1.014314E-3,1.0869195E-2,8.077942E-4,-4.8017534E-3,-9.675587E-3,-4.2916215E-3,6.560453E-3,-3.253346E-3,7.754029E-4,1.5382461E-2,-7.955963E-2,8.063268E-3,8.668106E-3,2.131629E-2,2.102888E-3,6.360431E-3,4.967181E-2,5.5856165E-3,-2.9612293E-3,-4.9652405E-2],"categories":[],"categories_nodes":[],"categories_segments":[],"categories_sizes":[],"default_left":[0,0,0,0,0,0,0,0,0,0,0,0,0,0,0,0,0,0,0,0,0,0,0,0,0,0,0,0,0,0,0,0,0,0,0,0,0,0,0,0,0,0,0,0,0,0,0,0,0,0,0,0,0,0,0,0,0],"id":4,"left_children":[1,3,5,7,9,11,13,15,17,19,21,23,25,-1,27,29,31,33,35,37,39,41,43,45,47,49,51,53,55,-1,-1,-1,-1,-1,-1,-1,-1,-1,-1,-1,-1,-1,-1,-1,-1,-1,-1,-1,-1,-1,-1,-1,-1,-1,-1,-1,-1],"loss_changes":[1.3961177E2,3.6606476E1,1.01431595E2,2.845089E1,3.7813053E1,4.694899E1,1.674629E2,1.488982E1,3.0178528E1,2.8357592E1,2.3585426E1,4.638173E1,2.5902527E1,0E0,1.4937177E1,1.8379925E1,1.4224367E1,1.4653397E1,1.2109875E1,1.922016E1,1.654037E1,1.2608376E1,2.5094732E1,4.1259384E1,1.3741848E1,9.754692E0,2.089611E1,1.208171E1,6.7352743E0,0E0,0E0,0E0,0E0,0E0,0E0,0E0,0E0,0E0,0E0,0E0,0E0,0E0,0E0,0E0,0E0,0E0,0E0,0E0,0E0,0E0,0E0,0E0,0E0,0E0,0E0,0E0,0E0],"parents":[2147483647,0,0,1,1,2,2,3,3,4,4,5,5,6,6,7,7,8,8,9,9,10,10,11,11,12,12,14,14,15,15,16,16,17,17,18,18,19,19,20,20,21,21,22,22,23,23,24,24,25,25,26,26,27,27,28,28],"right_children":[2,4,6,8,10,12,14,16,18,20,22,24,26,-1,28,30,32,34,36,38,40,42,44,46,48,50,52,54,56,-1,-1,-1,-1,-1,-1,-1,-1,-1,-1,-1,-1,-1,-1,-1,-1,-1,-1,-1,-1,-1,-1,-1,-1,-1,-1,-1,-1],"split_conditions":[2.4176645E1,-6.3573056E-1,2.5137566E10,1.983E1,1.5072309E8,1.9512114E-1,6.3507974E-2,2.3729425E1,-6.9158816E-1,-6.791814E-1,6.489974E-1,9.95992E-1,1.624243E8,-8.121491E-2,2.8161128E0,-1.3249406E-1,2.9211967E0,1.7857144E-2,2.2850243E1,2.3462545E1,1.795E1,-7.020319E-1,9.652127E-2,2.0983224E0,-7.767614E-1,5.4533863E-1,-7.0617184E-2,-2.0591265E-1,1.465E1,-1.7235611E-3,-8.559304E-3,-6.591167E-4,-3.5190683E-2,1.5383998E-2,-2.7472852E-2,-2.347815E-2,-5.64165E-3,1.014314E-3,1.0869195E-2,8.077942E-4,-4.8017534E-3,-9.675587E-3,-4.2916215E-3,6.560453E-3,-3.253346E-3,7.754029E-4,1.5382461E-2,-7.955963E-2,8.063268E-3,8.668106E-3,2.131629E-2,2.102888E-3,6.360431E-3,4.967181E-2,5.5856165E-3,-2.9612293E-3,-4.9652405E-2],"split_indices":[0,19,2,27,2,19,12,0,12,8,13,3,2,0,9,26,18,3,0,0,27,8,26,15,12,19,15,5,27,0,0,0,0,0,0,0,0,0,0,0,0,0,0,0,0,0,0,0,0,0,0,0,0,0,0,0,0],"split_type":[0,0,0,0,0,0,0,0,0,0,0,0,0,0,0,0,0,0,0,0,0,0,0,0,0,0,0,0,0,0,0,0,0,0,0,0,0,0,0,0,0,0,0,0,0,0,0,0,0,0,0,0,0,0,0,0,0],"sum_hessian":[6.0047227E4,2.5280605E4,3.476662E4,7.9362993E3,1.7344307E4,3.4532926E4,2.3369695E2,6.638354E3,1.2979456E3,8.761242E3,8.583063E3,2.2345152E4,1.2187771E4,9.534929E1,1.3834767E2,4.2104595E3,2.4278943E3,3.4775577E2,9.5018976E2,1.9837882E3,6.7774546E3,5.4816196E3,3.1014436E3,2.2317861E4,2.7291208E1,6.1743524E2,1.1570336E4,1.0767311E2,3.0674555E1,1.5712181E3,2.6392415E3,2.3986863E3,2.920792E1,2.0463745E1,3.2729202E2,1.0678892E2,8.434009E2,9.5540985E2,1.0283783E3,4.995801E3,1.7816536E3,1.5009084E3,3.9807112E3,9.291493E2,2.1722944E3,2.1824416E4,4.9344452E2,2.2080397E1,5.2108116E0,3.1721198E2,3.0022324E2,5.48679E3,6.083546E3,1.7987007E1,8.9686104E1,1.6472555E1,1.4202002E1],"tree_param":{"num_deleted":"0","num_feature":"30","num_nodes":"57","size_leaf_vector":"1"}},{"base_weights":[1.444427E-3,-4.9267028E-2,3.785058E-2,-1.02680095E-1,-2.4044149E-2,4.213226E-2,-6.046704E-1,-8.4699094E-2,-2.578545E-1,1.7425913E-2,-7.0874974E-2,1.622429E-2,1.01157814E-1,-7.8982875E-2,7.57812E-2,6.523588E-3,-1.1255136E-1,-8.531612E-1,-1.8451905E-1,1.320271E-1,-4.5669926E-3,-1.1160266E-1,7.964452E-3,1.776611E-2,-1.1578333E0,3.511716E-1,8.829863E-2,7.149737E-1,-4.652291E-2,4.609244E-3,-6.816496E-3,-3.2707132E-2,-5.35873E-3,-2.7727535E-2,-6.256416E-2,-2.3230767E-2,-3.3872784E-3,1.2038479E-2,1.2790855E-3,9.5882796E-4,-7.646456E-3,-1.4059098E-2,-4.350656E-3,-1.1822914E-3,1.3046565E-2,-2.6112047E-3,1.9309996E-3,-7.79778E-2,2.6955737E-2,2.060278E-2,2.5212306E-3,7.0290226E-3,2.8614365E-3,5.6691147E-2,1.1292811E-3,2.4070576E-2,-1.1064141E-2],"categories":[],"categories_nodes":[],"categories_segments":[],"categories_sizes":[],"default_left":[0,0,0,0,0,0,0,0,0,0,0,0,0,0,0,0,0,0,0,0,0,0,0,0,0,0,0,0,0,0,0,0,0,0,0,0,0,0,0,0,0,0,0,0,0,0,0,0,0,0,0,0,0,0,0,0,0],"id":5,"left_children":[1,3,5,7,9,11,13,15,17,19,21,23,25,-1,27,29,31,33,35,37,39,41,43,45,47,49,51,53,55,-1,-1,-1,-1,-1,-1,-1,-1,-1,-1,-1,-1,-1,-1,-1,-1,-1,-1,-1,-1,-1,-1,-1,-1,-1,-1,-1,-1],"loss_changes":[1.1082564E2,3.378008E1,9.6103745E1,2.2389725E1,3.3102283E1,5.307268E1,1.5367822E2,1.8333351E1,3.6162094E1,2.2791988E1,2.5714031E1,4.3581642E1,3.3964485E1,0E0,1.0816579E1,2.0650202E1,1.5943733E1,9.953346E0,2.4257252E1,1.6819582E1,2.6727627E1,2.1951561E1,2.1833708E1,3.517161E1,2.2466606E1,9.403545E0,1.6332344E1,6.299531E0,1.07711115E1,0E0,0E0,0E0,0E0,0E0,0E0,0E0,0E0,0E0,0E0,0E0,0E0,0E0,0E0,0E0,0E0,0E0,0E0,0E0,0E0,0E0,0E0,0E0,0E0,0E0,0E0,0E0,0E0],"parents":[2147483647,0,0,1,1,2,2,3,3,4,4,5,5,6,6,7,7,8,8,9,9,10,10,11,11,12,12,14,14,15,15,16,16,17,17,18,18,19,19,20,20,21,21,22,22,23,23,24,24,25,25,26,26,27,27,28,28],"right_children":[2,4,6,8,10,12,14,16,18,20,22,24,26,-1,28,30,32,34,36,38,40,42,44,46,48,50,52,54,56,-1,-1,-1,-1,-1,-1,-1,-1,-1,-1,-1,-1,-1,-1,-1,-1,-1,-1,-1,-1,-1,-1,-1,-1,-1,-1,-1,-1],"split_conditions":[4.186508E-1,-6.281944E-1,2.5137566E10,2.17E1,1.5655488E8,3.1119373E-1,9.84E-1,8.403697E-1,-9.8166376E-1,-8.41425E-1,4.6931446E-1,9.95992E-1,1.64065E8,-7.8982875E-2,-2.3838893E-1,-8.3629584E-1,1.204E1,-5.1757693E-1,-4.9788818E-1,-8.71947E-2,1.975E1,2.328923E1,2.17E1,1.375E1,-6.470785E-1,9.7879034E-1,1.8726559E-1,2.0983224E0,7.3086697E-1,4.609244E-3,-6.816496E-3,-3.2707132E-2,-5.35873E-3,-2.7727535E-2,-6.256416E-2,-2.3230767E-2,-3.3872784E-3,1.2038479E-2,1.2790855E-3,9.5882796E-4,-7.646456E-3,-1.4059098E-2,-4.350656E-3,-1.1822914E-3,1.3046565E-2,-2.6112047E-3,1.9309996E-3,-7.79778E-2,2.6955737E-2,2.060278E-2,2.5212306E-3,7.0290226E-3,2.8614365E-3,5.6691147E-2,1.1292811E-3,2.4070576E-2,-1.1064141E-2],"split_indices":[1,19,2,27,2,19,1,24,12,15,18,3,2,0,5,13,27,18,18,5,27,0,27,27,12,15,11,15,18,0,0,0,0,0,0,0,0,0,0,0,0,0,0,0,0,0,0,0,0,0,0,0,0,0,0,0,0],"split_type":[0,0,0,0,0,0,0,0,0,0,0,0,0,0,0,0,0,0,0,0,0,0,0,0,0,0,0,0,0,0,0,0,0,0,0,0,0,0,0,0,0,0,0,0,0,0,0,0,0,0,0,0,0,0,0,0,0],"sum_hessian":[6.002737E4,2.508394E4,3.494343E4,8.0435444E3,1.7040395E4,3.4713195E4,2.3023431E2,7.2102397E3,8.3330426E2,9.03666E3,8.003734E3,2.412641E4,1.0586787E4,9.415275E1,1.3608156E2,1.6858531E3,5.5243867E3,9.007943E1,7.432248E2,1.454912E3,7.5817485E3,5.2780156E3,2.7257188E3,2.4095836E4,3.0573578E1,5.1621545E2,1.0070572E4,2.1209108E1,1.1487245E2,1.0545518E3,6.313013E2,5.2936462E1,5.47145E3,5.2983418E1,3.7096016E1,2.1755528E2,5.2566956E2,7.1860175E2,7.3631024E2,6.5359463E3,1.045802E3,6.665712E2,4.6114443E3,2.4234055E3,3.0231314E2,5.529918E3,1.8565918E4,2.4834372E1,5.7392063E0,4.2872137E2,8.749406E1,3.7513594E3,6.319213E3,1.2727704E1,8.481404E0,2.7990047E1,8.688241E1],"tree_param":{"num_deleted":"0","num_feature":"30","num_nodes":"57","size_leaf_vector":"1"}},{"base_weights":[-4.528647E-3,-5.627767E-2,3.0708447E-2,-1.146959E-1,-2.2525389E-2,3.4529082E-2,-5.654109E-1,-2.2570552E-1,-9.017519E-2,2.020545E-2,-6.6294774E-2,-6.4295954E-3,6.601697E-2,-7.712792E-2,8.108358E-2,-3.7960687E-1,-8.523304E-2,-8.134315E-2,-4.4862506E-1,1.5281355E-1,-9.422705E-3,-9.178039E-2,6.300631E-2,2.1748802E-2,-3.4013614E-1,5.0530884E-2,3.3006656E-1,-1.8316609E-1,3.1226188E-1,3.637277E-2,-2.021296E-2,-2.0650165E-2,-1.7335303E-3,-6.47537E-3,-1.1787825E-3,-4.085842E-2,-6.250096E-3,1.9988893E-3,1.30580515E-2,1.7413307E-2,-8.2670845E-4,-1.8049197E-2,-4.039518E-3,2.2670091E-4,2.7939567E-2,-3.4688003E-4,7.7352608E-3,-2.0119043E-2,2.3744961E-2,2.0468782E-3,1.0138238E-2,6.9246204E-3,3.2328308E-2,-2.5954291E-2,1.3278112E-2,2.1584725E-2,-2.4253003E-2],"categories":[],"categories_nodes":[],"categories_segments":[],"categories_sizes":[],"default_left":[0,0,0,0,0,0,0,0,0,0,0,0,0,0,0,0,0,0,0,0,0,0,0,0,0,0,0,0,0,0,0,0,0,0,0,0,0,0,0,0,0,0,0,0,0,0,0,0,0,0,0,0,0,0,0,0,0],"id":6,"left_children":[1,3,5,7,9,11,13,15,17,19,21,23,25,-1,27,29,31,33,35,37,39,41,43,45,47,49,51,53,55,-1,-1,-1,-1,-1,-1,-1,-1,-1,-1,-1,-1,-1,-1,-1,-1,-1,-1,-1,-1,-1,-1,-1,-1,-1,-1,-1,-1],"loss_changes":[1.093335E2,4.787564E1,8.120244E1,2.4155617E1,2.8802795E1,4.571611E1,1.4369589E2,3.4675453E1,2.2978722E1,3.0624084E1,2.5077488E1,1.4488727E2,8.1887184E1,0E0,8.471377E0,2.1180725E1,1.3896775E1,1.9771976E1,2.0643196E1,1.7361187E1,1.617103E1,1.8730942E1,3.625088E1,5.4194912E1,6.1050323E1,2.7614006E1,6.711145E1,9.90096E0,7.2436137E0,0E0,0E0,0E0,0E0,0E0,0E0,0E0,0E0,0E0,0E0,0E0,0E0,0E0,0E0,0E0,0E0,0E0,0E0,0E0,0E0,0E0,0E0,0E0,0E0,0E0,0E0,0E0,0E0],"parents":[2147483647,0,0,1,1,2,2,3,3,4,4,5,5,6,6,7,7,8,8,9,9,10,10,11,11,12,12,14,14,15,15,16,16,17,17,18,18,19,19,20,20,21,21,22,22,23,23,24,24,25,25,26,26,27,27,28,28],"right_children":[2,4,6,8,10,12,14,16,18,20,22,24,26,-1,28,30,32,34,36,38,40,42,44,46,48,50,52,54,56,-1,-1,-1,-1,-1,-1,-1,-1,-1,-1,-1,-1,-1,-1,-1,-1,-1,-1,-1,-1,-1,-1,-1,-1,-1,-1,-1,-1],"split_conditions":[4.0674603E-1,-5.498294E-1,2.5137566E10,1E0,1.5361328E8,-4.0965107E-1,9.84E-1,-2.9989037E-1,3.7084925E8,-8.128749E-1,1.2910479E0,2.238E1,2.417E1,-7.712792E-2,2.8941132E1,5.952381E-3,2.2850243E1,1.8849206E-1,-1.3156925E-1,1.530815E-1,-1.1819632E0,2.2876171E1,2.142E1,6.8979776E-1,-1.0748505E-1,1.8817897E0,4.6931446E-1,2.3105776E-1,1.1413407E0,3.637277E-2,-2.021296E-2,-2.0650165E-2,-1.7335303E-3,-6.47537E-3,-1.1787825E-3,-4.085842E-2,-6.250096E-3,1.9988893E-3,1.30580515E-2,1.7413307E-2,-8.2670845E-4,-1.8049197E-2,-4.039518E-3,2.2670091E-4,2.7939567E-2,-3.4688003E-4,7.7352608E-3,-2.0119043E-2,2.3744961E-2,2.0468782E-3,1.0138238E-2,6.9246204E-3,3.2328308E-2,-2.5954291E-2,1.3278112E-2,2.1584725E-2,-2.4253003E-2],"split_indices":[1,19,2,29,2,12,1,18,2,8,18,27,27,0,0,3,0,1,8,1,12,0,27,15,18,15,18,26,21,0,0,0,0,0,0,0,0,0,0,0,0,0,0,0,0,0,0,0,0,0,0,0,0,0,0,0,0],"split_type":[0,0,0,0,0,0,0,0,0,0,0,0,0,0,0,0,0,0,0,0,0,0,0,0,0,0,0,0,0,0,0,0,0,0,0,0,0,0,0,0,0,0,0,0,0,0,0,0,0,0,0,0,0,0,0,0,0],"sum_hessian":[5.9955184E4,2.4288076E4,3.5667105E4,8.892183E3,1.5395894E4,3.544107E4,2.2603816E2,1.6065883E3,7.285594E3,7.789487E3,7.6064067E3,1.5402932E4,2.0038137E4,8.951257E1,1.3652559E2,7.65497E2,8.410913E2,7.111867E3,1.7372719E2,1.4224004E3,6.3670864E3,6.354901E3,1.2515057E3,1.4204158E4,1.1987733E3,1.8929521E4,1.108616E3,6.36011E1,7.2924484E1,1.5965562E1,7.4953143E2,1.1118569E2,7.299056E2,3.8766758E3,3.2351912E3,8.0368805E1,9.335838E1,6.9789105E2,7.2450934E2,1.2291149E2,6.244175E3,2.4765225E2,6.1072485E3,1.1205592E3,1.3094656E2,1.1683538E4,2.5206206E3,1.1143024E3,8.4470924E1,1.7809166E4,1.1203546E3,6.9169385E2,4.169221E2,3.6410282E1,2.7190819E1,6.3931965E1,8.992523E0],"tree_param":{"num_deleted":"0","num_feature":"30","num_nodes":"57","size_leaf_vector":"1"}},{"base_weights":[-3.2604872E-3,-3.371787E-2,4.6466526E-2,-7.116917E-2,-1.7567973E-3,-3.4738876E-2,7.775558E-2,-6.1727125E-2,-2.5626022E-1,1.0551258E-1,-1.2279119E-2,3.5415455E-3,-6.074894E-1,-4.0746748E-1,8.403622E-2,-1.09176755E-1,-4.2476628E-2,-5.067781E-1,3.7596665E-2,8.6752914E-2,5.6612897E-1,-5.9416663E-4,-8.083927E-2,4.5800015E-2,-1.015979E-1,-7.9377484E-1,-2.6418555E-1,1.0425956E-1,-7.503366E-2,7.422547E-2,2.7177572E-1,-6.3749114E-3,1.2129293E-3,-1.3798083E-2,-1.7720901E-3,-3.0566826E-2,1.0792274E-2,8.3777895E-3,-1.9858843E-2,1.2823087E-2,2.3111978E-3,4.5530107E-2,-2.8640306E-2,-7.150359E-3,2.9264035E-4,-1.4151453E-2,-3.058806E-3,8.715662E-3,-8.388458E-4,-1.7720206E-2,-2.5835268E-3,-1.3159195E-2,-4.38936E-2,-1.8827315E-2,5.639376E-2,-3.851598E-2,1.4986237E-2,1.4169248E-3,5.830182E-3,-1.2668229E-2,2.052E-2],"categories":[],"categories_nodes":[],"categories_segments":[],"categories_sizes":[],"default_left":[0,0,0,0,0,0,0,0,0,0,0,0,0,0,0,0,0,0,0,0,0,0,0,0,0,0,0,0,0,0,0,0,0,0,0,0,0,0,0,0,0,0,0,0,0,0,0,0,0,0,0,0,0,0,0,0,0,0,0,0,0],"id":7,"left_children":[1,3,5,7,9,11,13,15,17,19,21,23,25,27,29,31,33,35,37,39,41,43,45,47,49,51,53,55,-1,57,59,-1,-1,-1,-1,-1,-1,-1,-1,-1,-1,-1,-1,-1,-1,-1,-1,-1,-1,-1,-1,-1,-1,-1,-1,-1,-1,-1,-1,-1,-1],"loss_changes":[9.07831E1,4.4489586E1,5.7854263E1,2.9864082E1,2.2633892E1,1.3889645E2,5.0090294E1,1.48568535E1,6.1160465E1,1.5363314E1,1.462797E1,2.6374273E1,2.5065567E1,1.1777017E2,2.9832863E1,1.1499706E1,1.8994682E1,3.4038887E1,2.1665144E1,1.1805347E1,2.7903345E1,1.4347974E1,1.0519957E1,3.4082466E1,2.1417965E1,1.1103928E1,2.2449123E1,2.4785072E1,0E0,2.9973549E1,5.871963E1,0E0,0E0,0E0,0E0,0E0,0E0,0E0,0E0,0E0,0E0,0E0,0E0,0E0,0E0,0E0,0E0,0E0,0E0,0E0,0E0,0E0,0E0,0E0,0E0,0E0,0E0,0E0,0E0,0E0,0E0],"parents":[2147483647,0,0,1,1,2,2,3,3,4,4,5,5,6,6,7,7,8,8,9,9,10,10,11,11,12,12,13,13,14,14,15,15,16,16,17,17,18,18,19,19,20,20,21,21,22,22,23,23,24,24,25,25,26,26,27,27,29,29,30,30],"right_children":[2,4,6,8,10,12,14,16,18,20,22,24,26,28,30,32,34,36,38,40,42,44,46,48,50,52,54,56,-1,58,60,-1,-1,-1,-1,-1,-1,-1,-1,-1,-1,-1,-1,-1,-1,-1,-1,-1,-1,-1,-1,-1,-1,-1,-1,-1,-1,-1,-1,-1,-1],"split_conditions":[2.482646E1,-3.6805356E-1,-6.344279E-1,2.466E1,-3.6876082E-1,2.316E1,-1.0986841E0,2.3442017E1,-1.8514287E-1,2.692E1,8.9640015E-1,1.7838156E0,1.190801E0,-2.1494995E-1,2.466E1,9.5824045E-1,-1.6058313E0,6.760968E-3,7.7141035E-1,-5.40763E-1,5.7413423E-1,4.8353893E-1,6.759443E-2,-1.0017958E0,1.311E1,-3.551704E-1,9.613131E-3,-3.515413E-1,-7.503366E-2,5.2080015E-3,-3.5399526E-1,-6.3749114E-3,1.2129293E-3,-1.3798083E-2,-1.7720901E-3,-3.0566826E-2,1.0792274E-2,8.3777895E-3,-1.9858843E-2,1.2823087E-2,2.3111978E-3,4.5530107E-2,-2.8640306E-2,-7.150359E-3,2.9264035E-4,-1.4151453E-2,-3.058806E-3,8.715662E-3,-8.388458E-4,-1.7720206E-2,-2.5835268E-3,-1.3159195E-2,-4.38936E-2,-1.8827315E-2,5.639376E-2,-3.851598E-2,1.4986237E-2,1.4169248E-3,5.830182E-3,-1.2668229E-2,2.052E-2],"split_indices":[0,13,18,27,26,27,12,0,18,27,21,24,7,18,27,18,9,25,4,5,15,24,1,12,27,15,25,19,0,15,18,0,0,0,0,0,0,0,0,0,0,0,0,0,0,0,0,0,0,0,0,0,0,0,0,0,0,0,0,0,0],"split_type":[0,0,0,0,0,0,0,0,0,0,0,0,0,0,0,0,0,0,0,0,0,0,0,0,0,0,0,0,0,0,0,0,0,0,0,0,0,0,0,0,0,0,0,0,0,0,0,0,0,0,0,0,0,0,0,0,0,0,0,0,0],"sum_hessian":[5.993926E4,3.7173273E4,2.2765988E4,1.7114506E4,2.0058766E4,6.3311807E3,1.6434809E4,1.6285603E4,8.289032E2,1.7901924E3,1.8268574E4,5.935307E3,3.9587363E2,2.0899153E2,1.6225816E4,4.6973833E3,1.158822E4,4.4723962E2,3.8166354E2,1.7214863E3,6.8706085E1,1.5610489E4,2.6580845E3,4.234756E3,1.7005509E3,2.5558385E2,1.4028976E2,1.4290921E2,6.608231E1,1.5421841E4,8.039756E2,4.13097E3,5.664131E2,3.374033E2,1.1250816E4,3.9096255E2,5.6277077E1,2.9448346E2,8.7180084E1,3.3035983E2,1.3911265E3,5.2972675E1,1.5733411E1,6.758288E2,1.4934661E4,2.3395206E2,2.4241323E3,1.3867084E3,2.8480476E3,2.7912183E2,1.4214291E3,3.5694786E1,2.1988905E2,1.3055344E2,9.736333E0,2.5474573E1,1.1743464E2,7.4063228E3,8.015518E3,1.6758318E2,6.363924E2],"tree_param":{"num_deleted":"0","num_feature":"30","num_nodes":"61","size_leaf_vector":"1"}},{"base_weights":[4.3408026E-4,-3.1666953E-2,5.2892487E-2,-8.167596E-2,-5.2814065E-3,6.110226E-2,-3.5480377E-1,-7.29015E-2,-2.906377E-1,2.8905736E-2,-5.0683446E-2,-1.653545E-2,9.220943E-2,-1.2949313E0,5.485389E-2,-1.08171225E-1,-3.5166394E-2,-3.5307068E-1,7.164988E-1,8.1959774E-4,1.1764018E-1,-1.0014352E-1,-6.2068785E-3,2.2822635E-2,-6.032702E-1,1.7642003E-1,6.685088E-2,-3.2125184E-1,-7.569854E-2,-2.1435532E-1,2.2190355E-1,2.386454E-2,-5.589256E-3,3.3394116E-4,-4.9459864E-3,-2.712307E-2,-8.5853115E-3,-1.686175E-2,6.0696464E-2,9.120177E-3,-6.502007E-4,4.114162E-3,1.3902785E-2,-9.048071E-3,-3.5098207E-3,9.1784773E-4,-6.6677504E-3,3.4465343E-3,-4.544218E-3,-3.640163E-2,-3.2809586E-3,7.3560886E-3,1.981246E-2,1.6317634E-3,9.005412E-3,-5.4636884E-2,2.1910606E-2,-8.8841293E-4,-5.0972085E-2,6.2089022E-2,8.700466E-3],"categories":[],"categories_nodes":[],"categories_segments":[],"categories_sizes":[],"default_left":[0,0,0,0,0,0,0,0,0,0,0,0,0,0,0,0,0,0,0,0,0,0,0,0,0,0,0,0,0,0,0,0,0,0,0,0,0,0,0,0,0,0,0,0,0,0,0,0,0,0,0,0,0,0,0,0,0,0,0,0,0],"id":8,"left_children":[1,3,5,7,9,11,13,15,17,19,21,23,25,27,29,31,33,35,37,39,41,43,45,47,49,51,53,55,-1,57,59,-1,-1,-1,-1,-1,-1,-1,-1,-1,-1,-1,-1,-1,-1,-1,-1,-1,-1,-1,-1,-1,-1,-1,-1,-1,-1,-1,-1,-1,-1],"loss_changes":[1.0123182E2,4.9197937E1,7.637961E1,2.3555801E1,3.789843E1,5.4040863E1,1.7365804E2,1.64338E1,3.2800106E1,3.46959E1,2.3061691E1,1.4785956E2,3.4075317E1,2.85083E1,1.4195847E1,1.35317E1,1.5949436E1,1.66221E1,1.6475967E1,2.657708E1,1.8926712E1,1.1978657E1,1.726877E1,3.1451698E1,2.6872238E1,2.3688255E1,4.755757E1,1.6058212E1,0E0,1.8987692E1,9.16001E0,0E0,0E0,0E0,0E0,0E0,0E0,0E0,0E0,0E0,0E0,0E0,0E0,0E0,0E0,0E0,0E0,0E0,0E0,0E0,0E0,0E0,0E0,0E0,0E0,0E0,0E0,0E0,0E0,0E0,0E0],"parents":[2147483647,0,0,1,1,2,2,3,3,4,4,5,5,6,6,7,7,8,8,9,9,10,10,11,11,12,12,13,13,14,14,15,15,16,16,17,17,18,18,19,19,20,20,21,21,22,22,23,23,24,24,25,25,26,26,27,27,29,29,30,30],"right_children":[2,4,6,8,10,12,14,16,18,20,22,24,26,28,30,32,34,36,38,40,42,44,46,48,50,52,54,56,-1,58,60,-1,-1,-1,-1,-1,-1,-1,-1,-1,-1,-1,-1,-1,-1,-1,-1,-1,-1,-1,-1,-1,-1,-1,-1,-1,-1,-1,-1,-1,-1],"split_conditions":[2.482646E1,-5.3554493E-1,1.1377032E10,2.614E1,2.0896256E8,-6.266931E-1,2.7383522E1,4.055748E-2,1.2910479E0,2.415987E1,2.7845782E-1,2.316E1,6.1277443E-1,2.6714851E1,2.813683E1,1.6210864E-1,2.94E-1,1.108719E0,2.845E1,-4.2430463E-1,8.6861354E-1,-7.020319E-1,6.500197E8,1.7684901E0,2.5051877E0,2.5446432E1,2.6271208E1,1.0708665E0,-7.569854E-2,2.8161128E0,-1.7819246E0,2.386454E-2,-5.589256E-3,3.3394116E-4,-4.9459864E-3,-2.712307E-2,-8.5853115E-3,-1.686175E-2,6.0696464E-2,9.120177E-3,-6.502007E-4,4.114162E-3,1.3902785E-2,-9.048071E-3,-3.5098207E-3,9.1784773E-4,-6.6677504E-3,3.4465343E-3,-4.544218E-3,-3.640163E-2,-3.2809586E-3,7.3560886E-3,1.981246E-2,1.6317634E-3,9.005412E-3,-5.4636884E-2,2.1910606E-2,-8.8841293E-4,-5.0972085E-2,6.2089022E-2,8.700466E-3],"split_indices":[0,19,2,27,2,18,0,20,18,0,19,27,3,0,0,7,3,7,27,26,4,8,2,24,24,0,0,7,0,9,8,0,0,0,0,0,0,0,0,0,0,0,0,0,0,0,0,0,0,0,0,0,0,0,0,0,0,0,0,0,0],"split_type":[0,0,0,0,0,0,0,0,0,0,0,0,0,0,0,0,0,0,0,0,0,0,0,0,0,0,0,0,0,0,0,0,0,0,0,0,0,0,0,0,0,0,0,0,0,0,0,0,0,0,0,0,0,0,0,0,0,0,0,0,0],"sum_hessian":[6.0111758E4,3.7290785E4,2.2820975E4,1.2877651E4,2.4413133E4,2.2371572E4,4.4940067E2,1.2360454E4,5.171972E2,1.3925542E4,1.0487591E4,6.3987456E3,1.5972827E4,1.3581061E2,3.1359006E2,6.3866E3,5.9738545E3,4.8771237E2,2.9484848E1,1.057917E4,3.346372E3,4.9639453E3,5.5236455E3,5.997242E3,4.0150354E2,3.6944397E3,1.2278388E4,2.5478058E1,1.1033255E2,1.1974039E2,1.9384967E2,3.820708E1,6.348393E3,3.6062068E3,2.3676475E3,2.3733339E2,2.5037898E2,9.494067E0,1.999078E1,7.480456E2,9.831124E3,2.7437603E3,6.0261176E2,1.3398167E3,3.6241284E3,4.6293647E3,8.9428094E2,4.2678906E3,1.7293513E3,3.2544388E2,7.605965E1,3.261835E3,4.326048E2,9.4313125E3,2.847075E3,1.2486624E1,1.2991435E1,9.716161E1,2.2578773E1,7.4832473E0,1.8636642E2],"tree_param":{"num_deleted":"0","num_feature":"30","num_nodes":"61","size_leaf_vector":"1"}},{"base_weights":[-1.9443941E-3,-4.5915868E-2,2.9922077E-2,-9.227091E-2,-1.9072462E-2,2.5057218E-3,6.511745E-2,-8.1366755E-2,-2.958883E-1,5.2583914E-2,-4.0560167E-2,1.0300224E-2,-2.8400084E-1,3.3837545E-1,5.8184206E-2,-3.9784566E-2,-1.2555401E-1,-1.0158978E0,-2.1673225E-1,4.5726076E-2,5.8069706E-1,-3.3540294E-2,-2.2872026E-1,-0E0,1.7211847E-1,1.0436744E-2,-1.1747497E0,2.4752675E-1,8.216851E-1,7.483794E-2,-2.5599388E-2,-5.9451493E-3,6.02107E-4,-4.8216837E-3,-1.1347148E-2,-9.232785E-3,-6.177197E-2,-2.5901496E-2,-3.4344622E-3,3.7175845E-3,-5.178155E-3,3.5554983E-2,-1.8363485E-2,5.867565E-3,-2.1823912E-3,-1.2742867E-3,-2.2154272E-2,-2.9669117E-4,1.3114694E-2,1.7627638E-2,2.8553412E-3,-1.1773472E-2,6.546896E-3,-6.949998E-2,1.8458908E-2,9.902625E-3,4.8592165E-2,4.7352064E-2,-1.8596796E-2,6.8699396E-3,2.6126367E-3,-1.1649701E-2,1.3891563E-3],"categories":[],"categories_nodes":[],"categories_segments":[],"categories_sizes":[],"default_left":[0,0,0,0,0,0,0,0,0,0,0,0,0,0,0,0,0,0,0,0,0,0,0,0,0,0,0,0,0,0,0,0,0,0,0,0,0,0,0,0,0,0,0,0,0,0,0,0,0,0,0,0,0,0,0,0,0,0,0,0,0,0,0],"id":9,"left_children":[1,3,5,7,9,11,13,15,17,19,21,23,25,27,29,31,33,35,37,39,41,43,45,47,49,51,53,55,57,59,61,-1,-1,-1,-1,-1,-1,-1,-1,-1,-1,-1,-1,-1,-1,-1,-1,-1,-1,-1,-1,-1,-1,-1,-1,-1,-1,-1,-1,-1,-1,-1,-1],"loss_changes":[8.414879E1,3.1387783E1,3.35899E1,2.0481522E1,2.4611166E1,4.3688934E1,2.8822136E1,1.6118462E1,2.6412838E1,1.3262756E1,1.620981E1,3.1763783E1,1.3601668E2,1.622779E1,2.075335E1,1.857934E1,1.2514595E1,8.043385E0,1.8834412E1,1.556308E1,6.103945E0,1.8081661E1,1.9181704E1,2.78898E1,2.3605648E1,1.1586081E1,4.342305E1,1.1109747E1,9.236641E0,1.7500908E1,2.7319498E1,0E0,0E0,0E0,0E0,0E0,0E0,0E0,0E0,0E0,0E0,0E0,0E0,0E0,0E0,0E0,0E0,0E0,0E0,0E0,0E0,0E0,0E0,0E0,0E0,0E0,0E0,0E0,0E0,0E0,0E0,0E0,0E0],"parents":[2147483647,0,0,1,1,2,2,3,3,4,4,5,5,6,6,7,7,8,8,9,9,10,10,11,11,12,12,13,13,14,14,15,15,16,16,17,17,18,18,19,19,20,20,21,21,22,22,23,23,24,24,25,25,26,26,27,27,28,28,29,29,30,30],"right_children":[2,4,6,8,10,12,14,16,18,20,22,24,26,28,30,32,34,36,38,40,42,44,46,48,50,52,54,56,58,60,62,-1,-1,-1,-1,-1,-1,-1,-1,-1,-1,-1,-1,-1,-1,-1,-1,-1,-1,-1,-1,-1,-1,-1,-1,-1,-1,-1,-1,-1,-1,-1,-1],"split_conditions":[4.22E-1,-5.498294E-1,2.2351708E-2,2.466E1,-1.8772735E-1,0E0,4.3737575E-1,8.817548E-1,2.2850243E1,2.6177363E0,2.614E1,2.6714851E1,2.7156544E1,1.5799406E0,2.9313502E0,-2.9898906E-1,-6.4323866E-1,2.7959463E-1,-6.028949E-1,6.6110665E-1,3.3047527E-1,-9.8166376E-1,-1.2947643E-1,2.0983224E0,1.000754E0,7.0879614E-1,1.9666234E-2,2.339E1,1.817566E0,-5.183494E-1,1.359E1,-5.9451493E-3,6.02107E-4,-4.8216837E-3,-1.1347148E-2,-9.232785E-3,-6.177197E-2,-2.5901496E-2,-3.4344622E-3,3.7175845E-3,-5.178155E-3,3.5554983E-2,-1.8363485E-2,5.867565E-3,-2.1823912E-3,-1.2742867E-3,-2.2154272E-2,-2.9669117E-4,1.3114694E-2,1.7627638E-2,2.8553412E-3,-1.1773472E-2,6.546896E-3,-6.949998E-2,1.8458908E-2,9.902625E-3,4.8592165E-2,4.7352064E-2,-1.8596796E-2,6.8699396E-3,2.6126367E-3,-1.1649701E-2,1.3891563E-3],"split_indices":[1,19,19,27,26,19,1,7,0,15,27,0,0,4,24,15,13,4,12,15,23,12,15,15,24,7,14,27,7,21,27,0,0,0,0,0,0,0,0,0,0,0,0,0,0,0,0,0,0,0,0,0,0,0,0,0,0,0,0,0,0,0,0],"split_type":[0,0,0,0,0,0,0,0,0,0,0,0,0,0,0,0,0,0,0,0,0,0,0,0,0,0,0,0,0,0,0,0,0,0,0,0,0,0,0,0,0,0,0,0,0,0,0,0,0,0,0,0,0,0,0,0,0,0,0,0,0,0,0],"sum_hessian":[6.0051E4,2.5234062E4,3.4816938E4,9.2516E3,1.5982463E4,1.9573533E4,1.5243405E4,8.783135E3,4.6846536E2,3.6856377E3,1.2296825E4,1.905641E4,5.1712256E2,3.7565308E2,1.4867752E4,4.5270967E3,4.2560376E3,4.510345E1,4.233619E2,3.639651E3,4.598693E1,1.1856204E4,4.406213E2,1.7916957E4,1.1394535E3,3.8931146E2,1.2781113E2,3.176608E2,5.7992287E1,1.2403582E4,2.4641697E3,1.7920287E3,2.7350679E3,3.3086763E3,9.473614E2,9.903352E0,3.52001E1,1.3843791E2,2.84924E2,3.0550322E3,5.8461865E2,4.0738316E1,5.2486176E0,7.4304553E2,1.1113158E4,2.269966E2,2.1362471E2,1.752154E4,3.9541843E2,4.4242575E2,6.970278E2,1.2744701E2,2.6186444E2,1.12316734E2,1.5494393E1,2.986716E2,1.8989185E1,5.2743435E1,5.2488513E0,3.2875588E3,9.116023E3,5.041238E2,1.960046E3],"tree_param":{"num_deleted":"0","num_feature":"30","num_nodes":"63","size_leaf_vector":"1"}},{"base_weights":[6.510932E-4,-4.38308E-2,3.2985467E-2,-5.9467923E-2,2.8616844E-2,3.6398068E-2,-4.9583498E-1,-3.5427466E-2,-1.2665395E-1,1.03417985E-1,-6.724518E-2,2.9873958E-2,1.9007976E-1,-6.946301E-2,2.4582667E-2,-8.65742E-2,6.1729614E-4,-1.8787574E-2,-1.495711E-1,1.09753184E-1,-6.787173E-1,-1.19567394E-1,2.4031159E-3,9.403943E-2,1.1870466E-2,8.033087E-1,1.4628029E-1,6.2294376E-1,-1.0183305E-1,9.834481E-3,-5.360524E-3,-5.2878154E-3,1.0539865E-3,1.6892733E-2,-3.8007111E-3,-1.2212729E-2,-5.5016982E-3,2.3716823E-3,9.094997E-3,-5.133712E-2,1.2453817E-2,8.225559E-3,-7.5098383E-3,-3.2503163E-3,6.1528897E-3,6.5226875E-2,4.5458986E-3,6.521534E-4,-6.0725648E-2,2.8233195E-3,4.838906E-2,-3.5240632E-3,1.0241608E-2,-1.6489842E-3,5.0010104E-2,3.5311148E-2,-9.934613E-3],"categories":[],"categories_nodes":[],"categories_segments":[],"categories_sizes":[],"default_left":[0,0,0,0,0,0,0,0,0,0,0,0,0,0,0,0,0,0,0,0,0,0,0,0,0,0,0,0,0,0,0,0,0,0,0,0,0,0,0,0,0,0,0,0,0,0,0,0,0,0,0,0,0,0,0,0,0],"id":10,"left_children":[1,3,5,7,9,11,13,15,17,19,21,23,25,-1,27,29,31,33,35,37,39,41,43,45,47,49,51,53,55,-1,-1,-1,-1,-1,-1,-1,-1,-1,-1,-1,-1,-1,-1,-1,-1,-1,-1,-1,-1,-1,-1,-1,-1,-1,-1,-1,-1],"loss_changes":[8.624435E1,2.8597698E1,6.2637524E1,3.351081E1,3.2135597E1,3.456615E1,1.0363598E2,2.8200266E1,1.3500504E1,1.2491634E1,7.167804E0,3.8225033E1,3.7504692E1,0E0,1.0821207E1,3.697196E1,1.9518599E1,1.9598661E1,1.6821106E1,1.1200872E1,6.868829E0,9.787071E0,6.866169E0,2.7139427E1,3.706914E1,1.1295738E1,1.6679783E1,6.307165E0,9.29118E0,0E0,0E0,0E0,0E0,0E0,0E0,0E0,0E0,0E0,0E0,0E0,0E0,0E0,0E0,0E0,0E0,0E0,0E0,0E0,0E0,0E0,0E0,0E0,0E0,0E0,0E0,0E0,0E0],"parents":[2147483647,0,0,1,1,2,2,3,3,4,4,5,5,6,6,7,7,8,8,9,9,10,10,11,11,12,12,14,14,15,15,16,16,17,17,18,18,19,19,20,20,21,21,22,22,23,23,24,24,25,25,26,26,27,27,28,28],"right_children":[2,4,6,8,10,12,14,16,18,20,22,24,26,-1,28,30,32,34,36,38,40,42,44,46,48,50,52,54,56,-1,-1,-1,-1,-1,-1,-1,-1,-1,-1,-1,-1,-1,-1,-1,-1,-1,-1,-1,-1,-1,-1,-1,-1,-1,-1,-1,-1],"split_conditions":[4.22E-1,5.162673E-1,2.5137566E10,1.8437381E8,2.722772E-1,9.7604793E-1,9.2879854E-2,1.4570858E-1,7.6471823E-1,3.4898655E9,2.5447315E-1,2.1088331E8,9.2460316E-1,-6.946301E-2,9.954642E-1,-1.3884798E0,1E0,-1.0012044E0,1.1489686E0,2.5362992E-1,1.8959373E-1,-7.5670695E-1,1.3176827E-1,-2.221454E0,9.95992E-1,-1.0059617E0,-7.806823E-1,9.654913E-1,-8.3932346E-1,9.834481E-3,-5.360524E-3,-5.2878154E-3,1.0539865E-3,1.6892733E-2,-3.8007111E-3,-1.2212729E-2,-5.5016982E-3,2.3716823E-3,9.094997E-3,-5.133712E-2,1.2453817E-2,8.225559E-3,-7.5098383E-3,-3.2503163E-3,6.1528897E-3,6.5226875E-2,4.5458986E-3,6.521534E-4,-6.0725648E-2,2.8233195E-3,4.838906E-2,-3.5240632E-3,1.0241608E-2,-1.6489842E-3,5.0010104E-2,3.5311148E-2,-9.934613E-3],"split_indices":[1,19,2,2,26,1,12,1,24,2,1,2,3,0,12,15,29,13,24,18,16,12,15,15,3,18,18,8,16,0,0,0,0,0,0,0,0,0,0,0,0,0,0,0,0,0,0,0,0,0,0,0,0,0,0,0,0],"split_type":[0,0,0,0,0,0,0,0,0,0,0,0,0,0,0,0,0,0,0,0,0,0,0,0,0,0,0,0,0,0,0,0,0,0,0,0,0,0,0,0,0,0,0,0,0,0,0,0,0,0,0,0,0,0,0,0,0],"sum_hessian":[5.9961684E4,2.52383E4,3.4723383E4,2.0759191E4,4.4791104E3,3.4501855E4,2.2152806E2,1.5290847E4,5.4683433E3,2.5164717E3,1.9626385E3,3.3098598E4,1.4032596E3,8.099788E1,1.4053018E2,6.3217686E3,8.969078E3,9.592991E2,4.5090444E3,2.497232E3,1.9239756E1,1.1211276E3,8.41511E2,7.249869E3,2.5848727E4,9.2237305E1,1.3110223E3,2.3964201E1,1.1656598E2,4.2837018E2,5.8933984E3,1.4455189E3,7.5235596E3,1.3172491E2,8.2757416E2,1.3259513E3,3.1830933E3,1.3415018E3,1.1557301E3,1.399225E1,5.247505E0,1.0837203E2,1.01275555E3,5.396451E2,3.0186584E2,1.7492119E1,7.232377E3,2.5825105E4,2.3621675E1,1.6998999E1,7.5238304E1,2.7841312E2,1.0326093E3,8.986776E0,1.4977425E1,1.1692944E1,1.0487304E2],"tree_param":{"num_deleted":"0","num_feature":"30","num_nodes":"57","size_leaf_vector":"1"}},{"base_weights":[6.743367E-5,-2.7784696E-2,4.55077E-2,-5.1754925E-2,1.0561861E-2,5.3444996E-2,-2.6585987E-1,-1.2180886E-2,-8.383425E-2,5.3457044E-2,-3.309037E-2,-2.62128E-2,8.1135765E-2,-1.0824714E0,3.3049828E-3,-5.6447446E-2,6.384612E-2,-1.3580179E-1,-5.1570654E-2,-3.6871526E-2,8.9061E-2,-6.9727935E-2,2.6890066E-2,1.3741674E-2,-5.968166E-1,6.534001E-2,2.3656182E-1,-7.022144E-2,-2.5210342E-1,-2.0335552E-1,1.3706978E-1,-2.0305351E-3,-2.2599159E-2,3.843E-3,-1.7559154E-2,-1.8036918E-3,-8.761349E-3,2.2620514E-4,-5.29052E-3,1.0326388E-2,-4.7913636E-3,2.4294376E-3,8.276867E-3,-1.5733261E-3,-8.408367E-3,-2.8661038E-3,5.38849E-3,-8.266511E-3,2.014868E-3,-3.383322E-2,1.5077541E-2,7.0089786E-3,1.113977E-3,1.6932204E-2,7.863555E-4,3.8211655E-2,-2.4509989E-2,-1.8622145E-2,1.8618887E-2,1.942943E-2,-2.1424487E-3],"categories":[],"categories_nodes":[],"categories_segments":[],"categories_sizes":[],"default_left":[0,0,0,0,0,0,0,0,0,0,0,0,0,0,0,0,0,0,0,0,0,0,0,0,0,0,0,0,0,0,0,0,0,0,0,0,0,0,0,0,0,0,0,0,0,0,0,0,0,0,0,0,0,0,0,0,0,0,0,0,0],"id":11,"left_children":[1,3,5,7,9,11,13,15,17,19,21,23,25,27,29,31,33,35,37,39,41,43,45,47,49,51,53,-1,55,57,59,-1,-1,-1,-1,-1,-1,-1,-1,-1,-1,-1,-1,-1,-1,-1,-1,-1,-1,-1,-1,-1,-1,-1,-1,-1,-1,-1,-1,-1,-1],"loss_changes":[7.5760254E1,3.4115833E1,5.621462E1,2.8982086E1,2.6731195E1,4.894166E1,1.2437584E2,3.442156E1,2.1119751E1,2.3166985E1,1.5551462E1,1.3052528E2,4.0372375E1,3.6973648E1,1.1800298E1,4.0429054E1,2.0324417E1,1.8958908E1,2.369316E1,2.9221571E1,1.5960583E1,1.6520035E1,1.82794E1,2.5429163E1,2.7116333E1,4.8146885E1,3.4175575E1,0E0,1.0145129E1,1.6448395E1,1.1797147E1,0E0,0E0,0E0,0E0,0E0,0E0,0E0,0E0,0E0,0E0,0E0,0E0,0E0,0E0,0E0,0E0,0E0,0E0,0E0,0E0,0E0,0E0,0E0,0E0,0E0,0E0,0E0,0E0,0E0,0E0],"parents":[2147483647,0,0,1,1,2,2,3,3,4,4,5,5,6,6,7,7,8,8,9,9,10,10,11,11,12,12,13,13,14,14,15,15,16,16,17,17,18,18,19,19,20,20,21,21,22,22,23,23,24,24,25,25,26,26,28,28,29,29,30,30],"right_children":[2,4,6,8,10,12,14,16,18,20,22,24,26,28,30,32,34,36,38,40,42,44,46,48,50,52,54,-1,56,58,60,-1,-1,-1,-1,-1,-1,-1,-1,-1,-1,-1,-1,-1,-1,-1,-1,-1,-1,-1,-1,-1,-1,-1,-1,-1,-1,-1,-1,-1,-1],"split_conditions":[2.482646E1,-5.1582463E-2,9.92E-1,2.235529E-1,4.413519E-1,-6.712689E-1,6.2949206E-3,2.4254473E-1,3.2934132E-1,1.530815E-1,1.0296646E0,2.316E1,9.562624E-1,2.7383522E1,1.484E1,2.614E1,1.402723E0,-1.3039677E-1,-5.2365627E-2,-1.0251734E0,5.607374E-1,7.8134453E-1,3.717694E-1,-3.6310014E-1,3.2447991E0,6.838966E-1,7.711341E-1,-7.022144E-2,-6.2391824E-1,2.3802307E0,-7.517796E-2,-2.0305351E-3,-2.2599159E-2,3.843E-3,-1.7559154E-2,-1.8036918E-3,-8.761349E-3,2.2620514E-4,-5.29052E-3,1.0326388E-2,-4.7913636E-3,2.4294376E-3,8.276867E-3,-1.5733261E-3,-8.408367E-3,-2.8661038E-3,5.38849E-3,-8.266511E-3,2.014868E-3,-3.383322E-2,1.5077541E-2,7.0089786E-3,1.113977E-3,1.6932204E-2,7.863555E-4,3.8211655E-2,-2.4509989E-2,-1.8622145E-2,1.8618887E-2,1.942943E-2,-2.1424487E-3],"split_indices":[0,19,3,3,3,18,19,1,1,1,19,27,1,0,27,27,21,26,9,9,19,16,1,5,24,3,9,0,14,8,23,0,0,0,0,0,0,0,0,0,0,0,0,0,0,0,0,0,0,0,0,0,0,0,0,0,0,0,0,0,0],"split_type":[0,0,0,0,0,0,0,0,0,0,0,0,0,0,0,0,0,0,0,0,0,0,0,0,0,0,0,0,0,0,0,0,0,0,0,0,0,0,0,0,0,0,0,0,0,0,0,0,0,0,0,0,0,0,0,0,0,0,0,0,0],"sum_hessian":[5.985735E4,3.71096E4,2.274775E4,2.2836736E4,1.4272864E4,2.2183406E4,5.643439E2,1.0226058E4,1.2610679E4,7.1998984E3,7.0729663E3,5.721335E3,1.6462072E4,1.3924437E2,4.2509952E2,6.4639873E3,3.7620698E3,4.827934E3,7.7827446E3,2.0347688E3,5.1651294E3,4.39183E3,2.6811362E3,5.347683E3,3.7365158E2,1.4945267E4,1.5168047E3,9.9754814E1,3.9489555E1,1.6653802E2,2.5856146E2,6.2164443E3,2.4754298E2,3.6487146E3,1.1335526E2,1.3691223E3,3.458812E3,3.8254924E3,3.9572522E3,3.9593765E2,1.6388312E3,3.379564E3,1.7855654E3,3.1642754E3,1.2275547E3,1.3130454E3,1.3680907E3,6.89463E2,4.65822E3,3.4348074E2,3.0170841E1,5.456768E3,9.488498E3,1.0366296E3,4.80175E2,6.996136E0,3.249342E1,1.2913817E2,3.739986E1,1.0757382E2,1.5098766E2],"tree_param":{"num_deleted":"0","num_feature":"30","num_nodes":"61","size_leaf_vector":"1"}},{"base_weights":[2.1318435E-4,-2.5636427E-2,4.2383224E-2,-4.0190037E-2,3.6889244E-2,4.7317233E-2,-4.7094747E-1,-1.8098395E-2,-8.893336E-2,1.0297829E-1,-2.527447E-3,1.2288097E-1,2.1290869E-2,-6.7298666E-2,4.65107E-2,-5.703922E-2,2.0925798E-2,-1.8239659E-1,-7.2131164E-2,1.6456236E-1,1.5986515E-3,-1.3106714E-2,3.1330967E-1,1.0472222E-1,2.5964227E-1,-9.263623E-3,9.560379E-2,1.7591777E-1,-3.893814E-1,-2.3483972E-3,-1.3273174E-2,-1.9837487E-3,2.6961183E-3,-1.4161782E-3,-1.4220987E-2,2.3995226E-3,-4.594187E-3,1.2320361E-2,2.7370963E-3,-8.33851E-3,5.5969576E-3,2.6790696E-4,-1.2033296E-2,9.457046E-3,4.2921703E-2,2.6877234E-2,4.9141054E-3,2.9632235E-3,1.7336046E-2,-3.4499203E-3,1.9305485E-3,-5.093368E-3,6.2684463E-3,4.770143E-2,1.7872279E-3,-3.6325682E-2,3.4197874E-3],"categories":[],"categories_nodes":[],"categories_segments":[],"categories_sizes":[],"default_left":[0,0,0,0,0,0,0,0,0,0,0,0,0,0,0,0,0,0,0,0,0,0,0,0,0,0,0,0,0,0,0,0,0,0,0,0,0,0,0,0,0,0,0,0,0,0,0,0,0,0,0,0,0,0,0,0,0],"id":12,"left_children":[1,3,5,7,9,11,13,15,17,19,21,23,25,-1,27,29,31,33,35,37,39,41,43,45,47,49,51,53,55,-1,-1,-1,-1,-1,-1,-1,-1,-1,-1,-1,-1,-1,-1,-1,-1,-1,-1,-1,-1,-1,-1,-1,-1,-1,-1,-1,-1],"loss_changes":[6.54188E1,3.385621E1,5.7746708E1,3.2487087E1,1.8307339E1,4.4412804E1,9.846279E1,3.1568985E1,1.4740295E1,1.637222E1,1.4675054E1,1.4306793E1,3.81693E1,0E0,7.790588E0,2.1782944E1,2.0747189E1,2.2477882E1,1.8941868E1,1.4628906E1,1.84727E1,1.7918013E1,9.366892E0,1.4129036E1,1.1750568E1,3.4063854E1,2.8802685E1,1.1506605E1,4.9861045E0,0E0,0E0,0E0,0E0,0E0,0E0,0E0,0E0,0E0,0E0,0E0,0E0,0E0,0E0,0E0,0E0,0E0,0E0,0E0,0E0,0E0,0E0,0E0,0E0,0E0,0E0,0E0,0E0],"parents":[2147483647,0,0,1,1,2,2,3,3,4,4,5,5,6,6,7,7,8,8,9,9,10,10,11,11,12,12,14,14,15,15,16,16,17,17,18,18,19,19,20,20,21,21,22,22,23,23,24,24,25,25,26,26,27,27,28,28],"right_children":[2,4,6,8,10,12,14,16,18,20,22,24,26,-1,28,30,32,34,36,38,40,42,44,46,48,50,52,54,56,-1,-1,-1,-1,-1,-1,-1,-1,-1,-1,-1,-1,-1,-1,-1,-1,-1,-1,-1,-1,-1,-1,-1,-1,-1,-1,-1,-1],"split_conditions":[2.482646E1,5.162673E-1,2.5137566E10,2.0531482E8,2.0896256E8,6.287425E-1,9.84E-1,2.3721779E1,-9.674286E-1,1.6253256E0,3.6810868E0,7.9241514E-1,2.6214651E1,-6.7298666E-2,2.8161128E0,2.417E1,1.441E1,2.798934E8,-1.5706347E-2,1.4707235E-3,2.3542868E1,9.339397E8,1.6827974E0,-1.2482078E0,-5.43898E-1,-3.362083E-1,-9.6100545E-1,-2.0979033E-1,7.51333E-2,-2.3483972E-3,-1.3273174E-2,-1.9837487E-3,2.6961183E-3,-1.4161782E-3,-1.4220987E-2,2.3995226E-3,-4.594187E-3,1.2320361E-2,2.7370963E-3,-8.33851E-3,5.5969576E-3,2.6790696E-4,-1.2033296E-2,9.457046E-3,4.2921703E-2,2.6877234E-2,4.9141054E-3,2.9632235E-3,1.7336046E-2,-3.4499203E-3,1.9305485E-3,-5.093368E-3,6.2684463E-3,4.770143E-2,1.7872279E-3,-3.6325682E-2,3.4197874E-3],"split_indices":[0,19,2,2,2,3,1,0,14,24,4,1,0,0,9,27,27,2,22,25,0,2,8,20,18,18,18,5,5,0,0,0,0,0,0,0,0,0,0,0,0,0,0,0,0,0,0,0,0,0,0,0,0,0,0,0,0],"split_type":[0,0,0,0,0,0,0,0,0,0,0,0,0,0,0,0,0,0,0,0,0,0,0,0,0,0,0,0,0,0,0,0,0,0,0,0,0,0,0,0,0,0,0,0,0,0,0,0,0,0,0,0,0,0,0,0,0],"sum_hessian":[6.0009355E4,3.720268E4,2.2806674E4,3.0179898E4,7.0227817E3,2.259064E4,2.1603308E2,2.0769904E4,9.409994E3,2.6240398E3,4.3987417E3,5.7855576E3,1.6805082E4,7.975645E1,1.3627664E2,1.0397108E4,1.0372796E4,1.4314824E3,7.978512E3,1.6314125E3,9.926273E2,4.257411E3,1.4133093E2,5.109615E3,6.7594244E2,1.1908369E4,4.896714E3,1.0571727E2,3.055937E1,9.919493E3,4.776152E2,3.6556594E3,6.7171367E3,5.711709E2,8.6031146E2,1.1257821E3,6.85273E3,9.335328E2,6.978797E2,3.92418E2,6.0020935E2,3.938376E3,3.190349E2,1.1635739E2,2.4973545E1,7.3476265E1,5.036139E3,2.0561894E2,4.703235E2,5.298676E3,6.6096934E3,6.406514E2,4.2560625E3,1.5142236E1,9.0575035E1,1.7386442E1,1.317293E1],"tree_param":{"num_deleted":"0","num_feature":"30","num_nodes":"57","size_leaf_vector":"1"}},{"base_weights":[-2.4289673E-3,-3.917257E-2,2.3910062E-2,-3.219983E-2,-1.60671E-1,2.8183203E-2,-3.020576E-1,-6.385959E-2,2.5612593E-3,-1.8166888E-1,4.9935767E-1,1.1355409E-2,9.574161E-2,-1.1251764E0,2.6456608E-2,-5.3962234E-2,-2.721271E-1,5.0465908E-2,-2.9746663E-2,-2.0913325E-1,1.6987145E-1,6.4957835E-2,2.3065218E-1,1.7154206E-1,2.7792067E-3,2.50241E-1,7.904318E-2,-1.3227472E0,-0E0,1.4371395E-1,-2.4564406E-1,2.7244322E-3,-3.466455E-3,-2.279101E-2,-1.8312776E-3,1.0891469E-2,8.83169E-4,-1.6946482E-3,3.0364066E-2,7.5702453E-3,-1.1594865E-2,1.0240289E-3,3.7367165E-2,-3.2903627E-2,3.9911833E-2,9.52764E-3,-2.7627945E-2,-3.570227E-4,6.8028197E-3,4.632173E-2,1.0635638E-2,-6.0839313E-3,4.5255446E-3,-1.8588172E-2,-6.890159E-2,-2.3155222E-2,4.517351E-2,2.9062647E-2,1.3774997E-3,-4.988299E-2,-7.3656887E-3],"categories":[],"categories_nodes":[],"categories_segments":[],"categories_sizes":[],"default_left":[0,0,0,0,0,0,0,0,0,0,0,0,0,0,0,0,0,0,0,0,0,0,0,0,0,0,0,0,0,0,0,0,0,0,0,0,0,0,0,0,0,0,0,0,0,0,0,0,0,0,0,0,0,0,0,0,0,0,0,0,0],"id":13,"left_children":[1,3,5,7,9,11,13,15,17,19,21,23,25,27,29,31,33,35,37,39,41,-1,43,45,47,49,51,53,55,57,59,-1,-1,-1,-1,-1,-1,-1,-1,-1,-1,-1,-1,-1,-1,-1,-1,-1,-1,-1,-1,-1,-1,-1,-1,-1,-1,-1,-1,-1,-1],"loss_changes":[5.7990387E1,2.1171562E1,4.859249E1,2.6048828E1,1.8864555E1,3.9151726E1,1.22190285E2,2.548359E1,1.7459837E1,1.2744694E1,8.5643425E0,3.7873524E1,1.7666729E1,2.872084E1,1.0346501E1,1.9713287E1,2.421136E1,2.4921638E1,1.7753376E1,1.0066738E1,8.159309E0,0E0,1.7041683E1,1.9355312E1,3.4627594E1,1.666269E1,1.4280094E1,5.078003E0,8.897012E0,1.1458682E1,6.950837E0,0E0,0E0,0E0,0E0,0E0,0E0,0E0,0E0,0E0,0E0,0E0,0E0,0E0,0E0,0E0,0E0,0E0,0E0,0E0,0E0,0E0,0E0,0E0,0E0,0E0,0E0,0E0,0E0,0E0,0E0],"parents":[2147483647,0,0,1,1,2,2,3,3,4,4,5,5,6,6,7,7,8,8,9,9,10,10,11,11,12,12,13,13,14,14,15,15,16,16,17,17,18,18,19,19,20,20,22,22,23,23,24,24,25,25,26,26,27,27,28,28,29,29,30,30],"right_children":[2,4,6,8,10,12,14,16,18,20,22,24,26,28,30,32,34,36,38,40,42,-1,44,46,48,50,52,54,56,58,60,-1,-1,-1,-1,-1,-1,-1,-1,-1,-1,-1,-1,-1,-1,-1,-1,-1,-1,-1,-1,-1,-1,-1,-1,-1,-1,-1,-1,-1,-1],"split_conditions":[4.186508E-1,4.2767578E8,1.1377032E10,-3.4031516E-1,2.9235582E0,6.2654644E-1,2.7627981E1,2.466E1,1.3676462E8,3.6810868E0,9.009311E-1,2.0436507E-1,2.3038792E8,6.145954E-1,1.190801E0,3.6E-2,-1.6629909E-1,-8.41425E-1,4.134341E0,-4.0591624E-1,1.4530607E0,6.4957835E-2,1.3892547E0,2.7492783E0,2.6714851E1,-1.0461974E0,-9.0694314E-1,-1.5673535E-1,2.072978E0,1E0,1.1547445E0,2.7244322E-3,-3.466455E-3,-2.279101E-2,-1.8312776E-3,1.0891469E-2,8.83169E-4,-1.6946482E-3,3.0364066E-2,7.5702453E-3,-1.1594865E-2,1.0240289E-3,3.7367165E-2,-3.2903627E-2,3.9911833E-2,9.52764E-3,-2.7627945E-2,-3.570227E-4,6.8028197E-3,4.632173E-2,1.0635638E-2,-6.0839313E-3,4.5255446E-3,-1.8588172E-2,-6.890159E-2,-2.3155222E-2,4.517351E-2,2.9062647E-2,1.3774997E-3,-4.988299E-2,-7.3656887E-3],"split_indices":[1,2,2,13,15,19,0,27,2,4,24,3,2,16,7,3,18,15,24,5,14,0,24,12,0,12,18,16,14,29,24,0,0,0,0,0,0,0,0,0,0,0,0,0,0,0,0,0,0,0,0,0,0,0,0,0,0,0,0,0,0],"split_type":[0,0,0,0,0,0,0,0,0,0,0,0,0,0,0,0,0,0,0,0,0,0,0,0,0,0,0,0,0,0,0,0,0,0,0,0,0,0,0,0,0,0,0,0,0,0,0,0,0,0,0,0,0,0,0,0,0,0,0,0,0],"sum_hessian":[5.991683E4,2.5018586E4,3.4898242E4,2.3662684E4,1.355903E3,3.4447883E4,4.5036035E2,1.238484E4,1.1277844E4,1.314946E3,4.0956913E1,2.7580611E4,6.867272E3,1.2786461E2,3.2249576E2,1.1824645E4,5.601951E2,4.5434966E3,6.734347E3,1.2202988E3,9.464728E1,9.241792E0,3.1715122E1,1.4000353E3,2.6180576E4,6.678771E2,6.199395E3,1.0865918E2,1.920543E1,2.2596092E2,9.653483E1,1.466418E3,1.0358227E4,3.139508E2,2.4624432E2,7.43149E2,3.8003477E3,6.691895E3,4.245255E1,7.187617E1,1.1484226E3,7.615481E1,1.849247E1,1.2229905E1,1.9485218E1,1.3650713E3,3.4963997E1,2.4367154E4,1.8134218E3,3.3732132E1,6.3414496E2,3.340536E2,5.8653413E3,6.4935155E0,1.02165665E2,1.2978398E1,6.2270303E0,4.638485E1,1.7957608E2,9.987661E0,8.654717E1],"tree_param":{"num_deleted":"0","num_feature":"30","num_nodes":"61","size_leaf_vector":"1"}},{"base_weights":[-2.2177272E-3,-2.6383245E-2,3.7221286E-2,-6.2000766E-2,4.825375E-3,1.1504466E-1,1.3582767E-2,-1.8563975E-1,-5.378763E-2,3.652915E-2,-3.9156754E-2,6.911384E-2,1.12020984E-1,-4.374561E-2,4.8717372E-2,-8.987217E-2,-3.9372486E-1,-3.4683216E-2,-1.1179891E-1,9.576032E-3,1.2918627E-1,-2.521478E-2,-1.423862E-1,5.5077344E-1,1.0505053E-1,-2.6689475E-2,-1.2711877E0,3.309752E-2,2.7644396E-1,-9.610822E-3,7.261553E-3,-1.1997714E-2,-3.7870057E-2,-1.3384883E-3,-1.1969485E-2,-9.258954E-4,-7.5332187E-3,-4.991729E-4,5.819507E-3,1.9217929E-2,4.2880704E-3,-2.5412077E-3,5.34152E-3,1.1039133E-2,-8.413935E-3,7.164705E-3,5.257062E-2,4.3532816E-3,1.2471689E-2,1.4091098E-4,-2.0776179E-2,-6.556964E-2,-2.4910579E-2,1.956673E-4,4.335549E-3,2.5578958E-3,2.8258735E-2],"categories":[],"categories_nodes":[],"categories_segments":[],"categories_sizes":[],"default_left":[0,0,0,0,0,0,0,0,0,0,0,0,0,0,0,0,0,0,0,0,0,0,0,0,0,0,0,0,0,0,0,0,0,0,0,0,0,0,0,0,0,0,0,0,0,0,0,0,0,0,0,0,0,0,0,0,0],"id":14,"left_children":[1,3,5,7,9,11,13,15,17,19,21,-1,23,25,27,29,31,33,35,37,39,41,43,45,47,49,51,53,55,-1,-1,-1,-1,-1,-1,-1,-1,-1,-1,-1,-1,-1,-1,-1,-1,-1,-1,-1,-1,-1,-1,-1,-1,-1,-1,-1,-1],"loss_changes":[5.7229156E1,4.1396194E1,4.1952988E1,1.7626091E1,2.7673843E1,2.0056732E1,3.5251595E1,2.1480785E1,1.8057312E1,2.8790844E1,1.1942755E1,0E0,1.6092766E1,1.390411E2,3.85607E1,1.7902908E1,1.875681E1,1.9846996E1,1.4622711E1,1.8683514E1,2.8710846E1,2.4770748E1,9.322245E0,1.6551903E1,1.3501801E1,7.530031E1,1.9946136E0,1.5882717E1,4.5182915E1,0E0,0E0,0E0,0E0,0E0,0E0,0E0,0E0,0E0,0E0,0E0,0E0,0E0,0E0,0E0,0E0,0E0,0E0,0E0,0E0,0E0,0E0,0E0,0E0,0E0,0E0,0E0,0E0],"parents":[2147483647,0,0,1,1,2,2,3,3,4,4,5,5,6,6,7,7,8,8,9,9,10,10,12,12,13,13,14,14,15,15,16,16,17,17,18,18,19,19,20,20,21,21,22,22,23,23,24,24,25,25,26,26,27,27,28,28],"right_children":[2,4,6,8,10,12,14,16,18,20,22,-1,24,26,28,30,32,34,36,38,40,42,44,46,48,50,52,54,56,-1,-1,-1,-1,-1,-1,-1,-1,-1,-1,-1,-1,-1,-1,-1,-1,-1,-1,-1,-1,-1,-1,-1,-1,-1,-1,-1,-1],"split_conditions":[2.482646E1,-3.5384557E-1,6.1277443E-1,2.2850243E1,4.6520874E-1,-2.221454E0,-4.8136708E-1,1.871386E-2,4.186508E-1,2.4176645E1,8.234127E-1,6.911384E-2,-1.2482078E0,9.95992E-1,2.364E1,4.407174E-1,2.2764128E1,2.614E1,-5.1980597E-1,8.4598476E-1,2.4246439E1,1.5871758E0,1.269E1,1.5723482E-1,7.9241514E-1,2.316E1,4.470809E-1,2.597283E1,3.0642658E-1,-9.610822E-3,7.261553E-3,-1.1997714E-2,-3.7870057E-2,-1.3384883E-3,-1.1969485E-2,-9.258954E-4,-7.5332187E-3,-4.991729E-4,5.819507E-3,1.9217929E-2,4.2880704E-3,-2.5412077E-3,5.34152E-3,1.1039133E-2,-8.413935E-3,7.164705E-3,5.257062E-2,4.3532816E-3,1.2471689E-2,1.4091098E-4,-2.0776179E-2,-6.556964E-2,-2.4910579E-2,1.956673E-4,4.335549E-3,2.5578958E-3,2.8258735E-2],"split_indices":[0,13,3,0,3,15,12,9,3,0,3,0,20,3,27,18,0,27,12,19,0,19,27,15,1,27,9,0,18,0,0,0,0,0,0,0,0,0,0,0,0,0,0,0,0,0,0,0,0,0,0,0,0,0,0,0,0],"split_type":[0,0,0,0,0,0,0,0,0,0,0,0,0,0,0,0,0,0,0,0,0,0,0,0,0,0,0,0,0,0,0,0,0,0,0,0,0,0,0,0,0,0,0,0,0,0,0,0,0,0,0,0,0,0,0,0,0],"sum_hessian":[6.004664E4,3.723466E4,2.2811977E4,1.7390076E4,1.9844586E4,5.3128315E3,1.7499146E4,1.0811326E3,1.6308943E4,1.1533385E4,8.311201E3,1.1481963E1,5.3013496E3,6.6482495E3,1.0850896E4,7.416934E2,3.3943918E2,1.2271112E4,4.0378306E3,8.936128E3,2.5972559E3,7.324219E3,9.8698236E2,8.1460945E1,5.2198887E3,6.5582217E3,9.00277E1,1.0155885E4,6.950115E2,5.17169E2,2.2452437E2,2.3992725E2,9.951193E1,1.1815956E4,4.551566E2,1.1887534E3,2.8490771E3,7.5530127E3,1.3831155E3,3.7624127E2,2.2210146E3,6.135624E3,1.1885952E3,6.492691E1,9.220555E2,4.5728016E1,3.5732925E1,4.6437427E3,5.761457E2,6.096322E3,4.618998E2,8.479148E1,5.2362223E0,6.5780825E3,3.5778027E3,3.912539E2,3.037576E2],"tree_param":{"num_deleted":"0","num_feature":"30","num_nodes":"57","size_leaf_vector":"1"}},{"base_weights":[8.7806507E-4,-2.309026E-2,4.013008E-2,-5.3601313E-2,2.3788481E-3,1.15824535E-1,1.7226847E-2,7.3925797E-3,-7.2688885E-2,3.3902697E-2,-3.6177613E-2,7.280764E-2,1.12235725E-1,-4.5337703E-2,5.572499E-2,-3.4340065E-2,1.1410568E-1,-1.490132E-1,-5.5573422E-2,6.240891E-3,1.2536049E-1,-5.5982396E-2,5.0131064E-2,9.342986E-2,2.6838377E-1,-2.902419E-2,-1.2607303E0,1.6877268E-1,2.973104E-2,2.962929E-3,-3.8984956E-3,-4.043357E-2,6.614212E-3,-1.1133255E-2,1.7745505E-4,-4.416141E-3,1.9834407E-3,-3.2817192E-5,1.6712211E-2,1.8795788E-2,5.1212753E-3,-8.115816E-4,-5.0375606E-3,5.8557056E-3,-6.870778E-3,3.144325E-3,9.403837E-3,6.6282884E-3,2.242307E-2,-4.321762E-5,-1.958444E-2,-6.5155104E-2,-2.3214968E-2,-1.8994071E-3,1.4508116E-2,2.9967537E-3,-1.389725E-3],"categories":[],"categories_nodes":[],"categories_segments":[],"categories_sizes":[],"default_left":[0,0,0,0,0,0,0,0,0,0,0,0,0,0,0,0,0,0,0,0,0,0,0,0,0,0,0,0,0,0,0,0,0,0,0,0,0,0,0,0,0,0,0,0,0,0,0,0,0,0,0,0,0,0,0,0,0],"id":15,"left_children":[1,3,5,7,9,11,13,15,17,19,21,-1,23,25,27,29,31,33,35,37,39,41,43,45,47,49,51,53,55,-1,-1,-1,-1,-1,-1,-1,-1,-1,-1,-1,-1,-1,-1,-1,-1,-1,-1,-1,-1,-1,-1,-1,-1,-1,-1,-1,-1],"loss_changes":[5.641723E1,2.893581E1,3.9400543E1,1.9729E1,2.466296E1,2.5077988E1,4.2050064E1,1.7991825E1,1.6827606E1,2.8232857E1,1.5603015E1,0E0,1.5405746E1,1.3167412E2,3.17359E1,1.185904E1,1.9094166E1,2.6562275E1,3.2892452E1,1.943147E1,1.4807884E1,1.3198938E1,2.1406368E1,1.3558941E1,1.3702644E1,6.697971E1,2.186676E0,5.0727562E1,1.5276848E1,0E0,0E0,0E0,0E0,0E0,0E0,0E0,0E0,0E0,0E0,0E0,0E0,0E0,0E0,0E0,0E0,0E0,0E0,0E0,0E0,0E0,0E0,0E0,0E0,0E0,0E0,0E0,0E0],"parents":[2147483647,0,0,1,1,2,2,3,3,4,4,5,5,6,6,7,7,8,8,9,9,10,10,12,12,13,13,14,14,15,15,16,16,17,17,18,18,19,19,20,20,21,21,22,22,23,23,24,24,25,25,26,26,27,27,28,28],"right_children":[2,4,6,8,10,12,14,16,18,20,22,-1,24,26,28,30,32,34,36,38,40,42,44,46,48,50,52,54,56,-1,-1,-1,-1,-1,-1,-1,-1,-1,-1,-1,-1,-1,-1,-1,-1,-1,-1,-1,-1,-1,-1,-1,-1,-1,-1,-1,-1],"split_conditions":[2.482646E1,-3.748492E-1,6.1277443E-1,9.52381E-2,4.413519E-1,-2.221454E0,-4.8136708E-1,2.367926E1,1E0,4.1468254E-1,1.5871758E0,7.280764E-2,2.5446432E1,9.95992E-1,1E0,-3.70456E-1,-1.8564143E0,7.367927E-2,4.1746795E-1,2.441641E0,-1.0611881E0,-1.2163137E-1,8.234127E-1,-8.305842E-3,-2.0069656E-1,2.316E1,-7.767614E-1,3.2435812E-2,5.81012E-1,2.962929E-3,-3.8984956E-3,-4.043357E-2,6.614212E-3,-1.1133255E-2,1.7745505E-4,-4.416141E-3,1.9834407E-3,-3.2817192E-5,1.6712211E-2,1.8795788E-2,5.1212753E-3,-8.115816E-4,-5.0375606E-3,5.8557056E-3,-6.870778E-3,3.144325E-3,9.403837E-3,6.6282884E-3,2.242307E-2,-4.321762E-5,-1.958444E-2,-6.5155104E-2,-2.3214968E-2,-1.8994071E-3,1.4508116E-2,2.9967537E-3,-1.389725E-3],"split_indices":[0,13,3,3,3,15,12,0,29,1,19,0,0,3,29,14,8,12,15,12,21,9,3,26,12,27,12,12,12,0,0,0,0,0,0,0,0,0,0,0,0,0,0,0,0,0,0,0,0,0,0,0,0,0,0,0,0],"split_type":[0,0,0,0,0,0,0,0,0,0,0,0,0,0,0,0,0,0,0,0,0,0,0,0,0,0,0,0,0,0,0,0,0,0,0,0,0,0,0,0,0,0,0,0,0,0,0,0,0,0,0,0,0,0,0,0,0],"sum_hessian":[5.9963176E4,3.722839E4,2.2734783E4,1.6938963E4,2.028943E4,5.2791006E3,1.7455682E4,4.0363313E3,1.2902631E4,1.1164238E4,9.125191E3,1.2942116E1,5.2661587E3,6.6483936E3,1.0807289E4,2.9014087E3,1.1349225E3,2.360906E3,1.0541725E4,8.573352E3,2.590886E3,7.4233145E3,1.7018776E3,4.702095E3,5.640633E2,6.561429E3,8.696412E1,2.0186855E3,8.788604E3,9.21619E2,1.9797898E3,2.097949E1,1.113943E3,1.5923632E3,7.685428E2,7.8452344E3,2.6964905E3,8.397464E3,1.7588824E2,2.1561624E2,2.3752698E3,3.9339285E3,3.4893857E3,1.2546743E3,4.4720328E2,3.556956E3,1.1451393E3,3.2285287E2,2.4121042E2,6.0898486E3,4.7158066E2,8.184791E1,5.1162114E0,7.467029E2,1.2719827E3,5.763926E3,3.0246777E3],"tree_param":{"num_deleted":"0","num_feature":"30","num_nodes":"57","size_leaf_vector":"1"}},{"base_weights":[-1.5644016E-3,-2.4873994E-2,3.63706E-2,-5.531936E-2,6.558408E-4,1.0711796E-1,5.6126765E-3,-3.9947316E-2,-1.1708195E-1,3.0775836E-2,-3.343318E-2,9.0569586E-2,3.082707E-1,1.409867E-2,-2.9779556E-1,-8.1645906E-2,3.5202885E-3,-6.3600335E-3,-1.6026098E-1,6.728765E-3,1.1615702E-1,-6.0403407E-2,2.8304072E-2,2.307649E-2,1.2692821E-1,3.7379456E-1,-1.58691E-1,-2.115199E-2,9.723868E-2,-1.0794379E0,-8.232371E-3,-3.5722777E-3,-1.9135186E-2,4.478446E-3,-1.5909966E-3,1.7032648E-2,-2.7471108E-3,-1.1187398E-2,-3.1960811E-3,1.7320336E-3,-3.3084136E-3,1.442919E-3,1.0803544E-2,-3.87581E-3,5.0079296E-3,-6.977648E-4,2.1392783E-2,5.9456826E-4,3.1582896E-2,9.382149E-3,3.3767659E-3,-2.226141E-3,2.1740125E-2,-2.4893418E-2,1.8266601E-2,-1.4133913E-3,1.9104779E-2,-1.6782001E-3,6.733241E-3,-1.4529529E-2,-6.502795E-2,-1.0542077E-2,1.0274945E-2],"categories":[],"categories_nodes":[],"categories_segments":[],"categories_sizes":[],"default_left":[0,0,0,0,0,0,0,0,0,0,0,0,0,0,0,0,0,0,0,0,0,0,0,0,0,0,0,0,0,0,0,0,0,0,0,0,0,0,0,0,0,0,0,0,0,0,0,0,0,0,0,0,0,0,0,0,0,0,0,0,0,0,0],"id":16,"left_children":[1,3,5,7,9,11,13,15,17,19,21,23,25,27,29,31,33,35,37,39,41,43,45,47,49,51,53,55,57,59,61,-1,-1,-1,-1,-1,-1,-1,-1,-1,-1,-1,-1,-1,-1,-1,-1,-1,-1,-1,-1,-1,-1,-1,-1,-1,-1,-1,-1,-1,-1,-1,-1],"loss_changes":[5.2931225E1,2.8826353E1,4.956167E1,1.6037685E1,2.0707676E1,2.2907791E1,4.0863297E1,2.4560247E1,1.608844E1,2.1974289E1,1.5755162E1,1.5636795E1,1.610722E1,4.52883E1,9.761281E1,2.1161758E1,2.017629E1,1.5953166E1,1.4776695E1,1.7004408E1,2.0487251E1,1.809812E1,4.859948E1,1.5146097E1,1.4907944E1,1.1793304E1,1.174229E1,3.1107296E1,2.2539074E1,1.9805069E1,1.3735516E1,0E0,0E0,0E0,0E0,0E0,0E0,0E0,0E0,0E0,0E0,0E0,0E0,0E0,0E0,0E0,0E0,0E0,0E0,0E0,0E0,0E0,0E0,0E0,0E0,0E0,0E0,0E0,0E0,0E0,0E0,0E0,0E0],"parents":[2147483647,0,0,1,1,2,2,3,3,4,4,5,5,6,6,7,7,8,8,9,9,10,10,11,11,12,12,13,13,14,14,15,15,16,16,17,17,18,18,19,19,20,20,21,21,22,22,23,23,24,24,25,25,26,26,27,27,28,28,29,29,30,30],"right_children":[2,4,6,8,10,12,14,16,18,20,22,24,26,28,30,32,34,36,38,40,42,44,46,48,50,52,54,56,58,60,62,-1,-1,-1,-1,-1,-1,-1,-1,-1,-1,-1,-1,-1,-1,-1,-1,-1,-1,-1,-1,-1,-1,-1,-1,-1,-1,-1,-1,-1,-1,-1,-1],"split_conditions":[2.482646E1,-3.748492E-1,3.6253296E8,2.2618275E8,2.0896256E8,6.307012E-1,1.1377032E10,2.4254473E-1,-9.20163E-1,2.4176645E1,6.3053477E-1,-1.2342041E-1,2.9313502E0,2.6214651E1,2.7627981E1,2.614E1,1.530815E-1,1.323E1,1.4989688E0,1.795E1,1.584E1,1.5312572E0,2.238E1,2.431998E0,1.1547445E0,6.0596776E-1,1.0428021E0,2.8161128E0,-7.806823E-1,2.6714851E1,2.8941132E1,-3.5722777E-3,-1.9135186E-2,4.478446E-3,-1.5909966E-3,1.7032648E-2,-2.7471108E-3,-1.1187398E-2,-3.1960811E-3,1.7320336E-3,-3.3084136E-3,1.442919E-3,1.0803544E-2,-3.87581E-3,5.0079296E-3,-6.977648E-4,2.1392783E-2,5.9456826E-4,3.1582896E-2,9.382149E-3,3.3767659E-3,-2.226141E-3,2.1740125E-2,-2.4893418E-2,1.8266601E-2,-1.4133913E-3,1.9104779E-2,-1.6782001E-3,6.733241E-3,-1.4529529E-2,-6.502795E-2,-1.0542077E-2,1.0274945E-2],"split_indices":[0,13,2,2,2,6,2,1,19,0,18,20,24,0,0,27,3,27,24,27,27,7,27,9,24,7,4,9,18,0,0,0,0,0,0,0,0,0,0,0,0,0,0,0,0,0,0,0,0,0,0,0,0,0,0,0,0,0,0,0,0,0,0],"split_type":[0,0,0,0,0,0,0,0,0,0,0,0,0,0,0,0,0,0,0,0,0,0,0,0,0,0,0,0,0,0,0,0,0,0,0,0,0,0,0,0,0,0,0,0,0,0,0,0,0,0,0,0,0,0,0,0,0,0,0,0,0,0,0],"sum_hessian":[5.985934E4,3.7078816E4,2.278052E4,1.6912602E4,2.0166217E4,6.9011694E3,1.5879351E4,1.354473E4,3.3678716E3,1.0707996E4,9.458221E3,6.378382E3,5.227874E2,1.5448555E4,4.307959E2,6.913762E3,6.6309683E3,9.458744E2,2.4219973E3,8.356648E3,2.3513472E3,6.5837275E3,2.874493E3,2.2346152E3,4.1437666E3,4.588197E2,6.396771E1,1.0848448E4,4.600107E3,1.1561998E2,3.1517593E2,6.688707E3,2.2505527E2,1.9308663E3,4.700102E3,1.1516969E2,8.307047E2,1.4584971E3,9.635002E2,6.0442373E3,2.3124111E3,1.2561177E3,1.0952295E3,5.950644E3,6.330832E2,2.600193E3,2.742998E2,2.195449E3,3.916633E1,2.0471804E3,2.0965864E3,5.8223793E1,4.0059592E2,3.8979023E1,2.4988688E1,1.0661489E4,1.8695818E2,1.0228217E3,3.5772852E3,2.5919357E1,8.970062E1,1.6204489E2,1.5313103E2],"tree_param":{"num_deleted":"0","num_feature":"30","num_nodes":"63","size_leaf_vector":"1"}},{"base_weights":[-1.9063315E-3,-1.5630638E-2,5.712844E-2,-1.3487428E-2,-1.0045474E0,4.891458E-2,2.8663257E-1,-1.8951392E-2,1.3070968E-1,-1.1856923E0,5.6013733E-2,-3.9184112E-2,6.839755E-2,-2.738551E-1,5.0011206E-1,-2.226343E-2,2.076953E-1,7.975679E-1,1.1229528E-1,-7.4059553E-3,-1.2510301E0,5.5020563E-2,-1.1634094E-1,1.1881124E-1,3.753829E-2,2.1524948E-1,-5.246629E-1,7.78253E-1,-7.5238876E-2,-7.4046594E-4,-4.387011E-3,6.073757E-3,2.1580001E-2,-1.7036235E-2,4.9093265E-2,1.2749592E-2,1.4662674E-3,-6.444304E-2,-3.468428E-2,6.6274437E-3,-5.129078E-3,7.340916E-5,-1.0446188E-2,6.94263E-3,-4.6863575E-3,-2.8727562E-3,3.3402673E-3,-7.223805E-3,3.7510097E-2,1.4217371E-2,-3.1597197E-2,5.0309252E-2,2.0354426E-2,3.8366888E-3,-4.9147233E-2],"categories":[],"categories_nodes":[],"categories_segments":[],"categories_sizes":[],"default_left":[0,0,0,0,0,0,0,0,0,0,0,0,0,0,0,0,0,0,0,0,0,0,0,0,0,0,0,0,0,0,0,0,0,0,0,0,0,0,0,0,0,0,0,0,0,0,0,0,0,0,0,0,0,0,0],"id":17,"left_children":[1,3,5,7,9,11,13,15,17,19,-1,21,23,25,27,29,31,33,35,-1,37,39,41,43,45,47,49,51,53,-1,-1,-1,-1,-1,-1,-1,-1,-1,-1,-1,-1,-1,-1,-1,-1,-1,-1,-1,-1,-1,-1,-1,-1,-1,-1],"loss_changes":[4.8502186E1,1.0284182E2,2.123816E1,3.8182766E1,4.172471E1,1.8719692E1,4.6767582E1,3.5045807E1,2.1544413E1,6.2657013E0,0E0,1.4362244E1,1.3872139E1,1.3387268E1,4.534803E1,2.2456175E1,1.2871916E1,1.0306885E1,2.0362799E1,0E0,8.3135986E-1,1.0879009E1,1.1868555E1,1.4452805E1,1.5411989E1,7.3215303E0,6.4452E0,1.5581429E1,1.2978511E1,0E0,0E0,0E0,0E0,0E0,0E0,0E0,0E0,0E0,0E0,0E0,0E0,0E0,0E0,0E0,0E0,0E0,0E0,0E0,0E0,0E0,0E0,0E0,0E0,0E0,0E0],"parents":[2147483647,0,0,1,1,2,2,3,3,4,4,5,5,6,6,7,7,8,8,9,9,11,11,12,12,13,13,14,14,15,15,16,16,17,17,18,18,20,20,21,21,22,22,23,23,24,24,25,25,26,26,27,27,28,28],"right_children":[2,4,6,8,10,12,14,16,18,20,-1,22,24,26,28,30,32,34,36,-1,38,40,42,44,46,48,50,52,54,-1,-1,-1,-1,-1,-1,-1,-1,-1,-1,-1,-1,-1,-1,-1,-1,-1,-1,-1,-1,-1,-1,-1,-1,-1,-1],"split_conditions":[6.098796E-1,9.95992E-1,2.771E1,9.562624E-1,7.9888093E-1,2.3760096E1,-2.8737727E-1,2.2312105E0,8.5089463E-1,-5.248157E-1,5.6013733E-2,1.8943934E8,1.241762E0,6.949056E-1,1.5565319E0,8.2738096E-1,1.779E1,-8.45222E-1,9.80036E-1,-7.4059553E-3,5.888024E-1,1.9940871E0,-5.19599E-1,1.9595193E0,-8.128749E-1,-8.9285844E-5,1.8943934E8,-1.9900277E-1,1.9510566E0,-7.4046594E-4,-4.387011E-3,6.073757E-3,2.1580001E-2,-1.7036235E-2,4.9093265E-2,1.2749592E-2,1.4662674E-3,-6.444304E-2,-3.468428E-2,6.6274437E-3,-5.129078E-3,7.340916E-5,-1.0446188E-2,6.94263E-3,-4.6863575E-3,-2.8727562E-3,3.3402673E-3,-7.223805E-3,3.7510097E-2,1.4217371E-2,-3.1597197E-2,5.0309252E-2,2.0354426E-2,3.8366888E-3,-4.9147233E-2],"split_indices":[19,3,27,1,8,0,18,15,3,16,0,2,24,11,7,3,27,9,24,0,5,24,15,9,8,25,2,8,7,0,0,0,0,0,0,0,0,0,0,0,0,0,0,0,0,0,0,0,0,0,0,0,0,0,0],"split_type":[0,0,0,0,0,0,0,0,0,0,0,0,0,0,0,0,0,0,0,0,0,0,0,0,0,0,0,0,0,0,0,0,0,0,0,0,0,0,0,0,0,0,0,0,0,0,0,0,0,0,0,0,0,0,0],"sum_hessian":[5.986664E4,4.8576164E4,1.1290478E4,4.8472227E4,1.03935715E2,1.0901949E4,3.885276E2,4.6704062E4,1.7681637E3,9.622168E1,7.714035E0,1.9732236E3,8.928726E3,1.0695841E2,2.8156918E2,4.603272E4,6.713431E2,4.623052E1,1.7219331E3,5.984492E0,9.023718E1,8.8800464E2,1.085219E3,3.3879163E3,5.54081E3,3.6168556E1,7.0789856E1,1.896892E2,9.187999E1,4.1330285E4,4.7024336E3,4.8613403E2,1.8520903E2,6.2481465E0,3.9982372E1,6.318911E2,1.090042E3,8.310442E1,7.1327662E0,5.9573944E2,2.9226523E2,4.7750757E2,6.0771136E2,3.0967268E3,2.911893E2,1.3039949E3,4.236815E3,2.195084E1,1.4217715E1,7.9858265E0,6.280403E1,1.1629323E2,7.3395966E1,7.939292E1,1.2487064E1],"tree_param":{"num_deleted":"0","num_feature":"30","num_nodes":"55","size_leaf_vector":"1"}},{"base_weights":[-2.8201326E-4,-3.443475E-2,2.2598455E-2,-1.0584312E-2,-6.793026E-2,-3.128582E-2,3.8828835E-2,1.5495275E-2,-7.866609E-2,-8.409498E-2,1.01592295E-1,-6.429568E-3,-2.0280541E-1,6.7185365E-2,5.837342E-4,-3.5459165E-2,6.4054154E-2,8.7649834E-1,-8.211166E-2,-1.8049349E-1,-6.293443E-2,1.8989438E-2,4.2878348E-1,-5.3098086E-2,8.4965385E-2,-3.0447236E-1,-3.914165E-3,4.7685277E-2,1.5911937E-1,-5.0091088E-2,6.762977E-2,9.993802E-3,-3.2662365E-3,1.849472E-2,2.509815E-3,6.4188056E-2,1.6945902E-2,-4.5663156E-3,1.2797761E-2,2.0860707E-2,-9.851709E-3,2.2104269E-2,-3.3485608E-3,2.1627417E-2,-1.4567873E-3,4.5449317E-2,1.1523802E-2,-1.093142E-2,-1.3076485E-3,5.395609E-3,-1.0027917E-2,-1.9389315E-2,1.50705E-3,4.734637E-3,-2.0803943E-2,4.60474E-3,7.095245E-4,2.365382E-3,1.346719E-2,-4.0918645E-3,5.8596907E-3,4.0544667E-3,-1.7361373E-2],"categories":[],"categories_nodes":[],"categories_segments":[],"categories_sizes":[],"default_left":[0,0,0,0,0,0,0,0,0,0,0,0,0,0,0,0,0,0,0,0,0,0,0,0,0,0,0,0,0,0,0,0,0,0,0,0,0,0,0,0,0,0,0,0,0,0,0,0,0,0,0,0,0,0,0,0,0,0,0,0,0,0,0],"id":18,"left_children":[1,3,5,7,9,11,13,15,17,19,21,23,25,27,29,31,33,35,37,39,41,43,45,47,49,51,53,55,57,59,61,-1,-1,-1,-1,-1,-1,-1,-1,-1,-1,-1,-1,-1,-1,-1,-1,-1,-1,-1,-1,-1,-1,-1,-1,-1,-1,-1,-1,-1,-1,-1,-1],"loss_changes":[4.680553E1,1.918905E1,3.1368252E1,2.4934566E1,2.7389107E1,3.5369026E1,2.9887184E1,2.5120413E1,1.279347E1,1.8575249E1,2.3455002E1,3.0933529E1,2.1203617E1,2.8345512E1,3.988756E1,3.4809338E1,2.1973385E1,2.4593906E0,1.2083265E1,1.62827E1,1.5249058E1,1.3900388E1,1.6344849E1,2.1388199E1,1.6071205E1,1.9411774E1,1.4563979E1,1.941451E1,3.407335E1,3.550917E1,2.8223953E1,0E0,0E0,0E0,0E0,0E0,0E0,0E0,0E0,0E0,0E0,0E0,0E0,0E0,0E0,0E0,0E0,0E0,0E0,0E0,0E0,0E0,0E0,0E0,0E0,0E0,0E0,0E0,0E0,0E0,0E0,0E0,0E0],"parents":[2147483647,0,0,1,1,2,2,3,3,4,4,5,5,6,6,7,7,8,8,9,9,10,10,11,11,12,12,13,13,14,14,15,15,16,16,17,17,18,18,19,19,20,20,21,21,22,22,23,23,24,24,25,25,26,26,27,27,28,28,29,29,30,30],"right_children":[2,4,6,8,10,12,14,16,18,20,22,24,26,28,30,32,34,36,38,40,42,44,46,48,50,52,54,56,58,60,62,-1,-1,-1,-1,-1,-1,-1,-1,-1,-1,-1,-1,-1,-1,-1,-1,-1,-1,-1,-1,-1,-1,-1,-1,-1,-1,-1,-1,-1,-1,-1,-1],"split_conditions":[2.4129894E1,1.681E1,1.375E1,1.9443766E8,1.2910479E0,2.8681536E0,7.3E-1,2.3536644E1,-1.7811888E0,-8.9809275E-1,2.177E1,1.9512114E-1,3.484927E-1,2.5185026E1,2.597283E1,-1.1638409E0,-4.8046595E-1,9.868669E-1,2.60372E0,1.3665329E-1,2.2655113E1,2.2943419E1,2.0896256E8,-1.0534734E0,1.7279894E0,3.891303E-1,4.088076E-1,2.1454533E8,-4.548781E-1,1.0875404E0,2.5137566E10,9.993802E-3,-3.2662365E-3,1.849472E-2,2.509815E-3,6.4188056E-2,1.6945902E-2,-4.5663156E-3,1.2797761E-2,2.0860707E-2,-9.851709E-3,2.2104269E-2,-3.3485608E-3,2.1627417E-2,-1.4567873E-3,4.5449317E-2,1.1523802E-2,-1.093142E-2,-1.3076485E-3,5.395609E-3,-1.0027917E-2,-1.9389315E-2,1.50705E-3,4.734637E-3,-2.0803943E-2,4.60474E-3,7.095245E-4,2.365382E-3,1.346719E-2,-4.0918645E-3,5.8596907E-3,4.0544667E-3,-1.7361373E-2],"split_indices":[0,27,27,2,18,24,3,0,11,19,27,19,15,0,0,15,26,18,9,4,0,0,2,6,15,18,20,2,12,18,2,0,0,0,0,0,0,0,0,0,0,0,0,0,0,0,0,0,0,0,0,0,0,0,0,0,0,0,0,0,0,0,0],"split_type":[0,0,0,0,0,0,0,0,0,0,0,0,0,0,0,0,0,0,0,0,0,0,0,0,0,0,0,0,0,0,0,0,0,0,0,0,0,0,0,0,0,0,0,0,0,0,0,0,0,0,0,0,0,0,0,0,0,0,0,0,0,0,0],"sum_hessian":[5.989372E4,2.4029594E4,3.5864125E4,1.4038089E4,9.991505E3,8.30031E3,2.7563814E4,1.0149499E4,3.88859E3,9.122708E3,8.687966E2,7.2511143E3,1.0491954E3,1.5826219E4,1.1737597E4,4.951713E3,5.197786E3,1.2961809E1,3.8756282E3,1.6398752E3,7.482833E3,6.947606E2,1.7403596E2,4.8010786E3,2.450036E3,6.936101E2,3.5558527E2,1.3058906E4,2.7673127E3,6.6842554E3,5.0533413E3,5.5661865E2,4.395094E3,2.2388039E2,4.973906E3,6.4792066E0,6.4826026E0,3.773792E3,1.018362E2,4.3344055E1,1.5965312E3,5.8281406E1,7.424552E3,7.180464E1,6.22956E2,4.9670494E1,1.2436546E2,6.705995E2,4.130479E3,2.2686804E3,1.813556E2,5.5545074E2,1.3815933E2,2.8736362E2,6.822167E1,5.6126123E3,7.4462935E3,1.3749247E3,1.3923882E3,5.6190234E3,1.0652318E3,4.895556E3,1.5778505E2],"tree_param":{"num_deleted":"0","num_feature":"30","num_nodes":"63","size_leaf_vector":"1"}},{"base_weights":[1.7409811E-4,-6.075901E-2,1.0716536E-2,1.3160688E-1,-7.905194E-2,-1.5839495E-2,3.370625E-2,-6.135904E-1,1.6151384E-1,-1.919009E-2,-1.1323247E-1,-5.0491754E-2,2.7816087E-2,1.1478925E-2,9.5537804E-2,-1.1768272E0,3.2578852E-2,8.5423714E-1,1.3292545E-1,5.5695463E-2,-8.79541E-2,-1.1770598E-1,5.7934964E-1,-4.6706267E-2,-9.373133E-1,1.3414081E-2,3.968502E-1,1.3892169E-2,-6.5089357E-1,-1.0129574E-1,1.1224785E-1,6.352275E-3,-8.134997E-2,-1.6522465E-2,5.745501E-2,1.8043589E-2,2.845329E-3,-5.520867E-4,1.266356E-2,-4.856261E-3,5.4862242E-2,1.1737721E-2,-6.1566117E-3,4.6270166E-2,-4.7514862E-3,-8.054465E-3,-9.343976E-4,3.380583E-2,-5.8242824E-2,8.722753E-3,-3.2112555E-4,3.4037914E-2,-8.6312306E-5,1.2473981E-3,-5.795609E-3,-5.6626517E-2,2.2963951E-4,-8.926091E-3,2.2080222E-2,8.000943E-3,1.272168E-3],"categories":[],"categories_nodes":[],"categories_segments":[],"categories_sizes":[],"default_left":[0,0,0,0,0,0,0,0,0,0,0,0,0,0,0,0,0,0,0,0,0,0,0,0,0,0,0,0,0,0,0,0,0,0,0,0,0,0,0,0,0,0,0,0,0,0,0,0,0,0,0,0,0,0,0,0,0,0,0,0,0],"id":19,"left_children":[1,3,5,7,9,11,13,15,17,19,21,23,25,27,29,31,-1,33,35,37,39,41,43,45,47,49,51,53,55,57,59,-1,-1,-1,-1,-1,-1,-1,-1,-1,-1,-1,-1,-1,-1,-1,-1,-1,-1,-1,-1,-1,-1,-1,-1,-1,-1,-1,-1,-1,-1],"loss_changes":[3.8438095E1,3.1061474E1,3.1150187E1,1.71316E1,1.6476662E1,3.5813774E1,3.757393E1,2.1944546E1,1.4395672E1,1.5105334E1,1.5914253E1,4.4165638E1,5.5623985E1,3.2104588E1,2.3793251E1,1.2638685E1,0E0,1.05612335E1,1.2235859E1,1.8531208E1,1.663122E1,9.766823E0,7.85925E0,4.210157E1,2.1371456E1,3.2226173E1,4.455546E1,2.8762913E1,2.3134235E1,2.3775465E1,2.7616867E1,0E0,0E0,0E0,0E0,0E0,0E0,0E0,0E0,0E0,0E0,0E0,0E0,0E0,0E0,0E0,0E0,0E0,0E0,0E0,0E0,0E0,0E0,0E0,0E0,0E0,0E0,0E0,0E0,0E0,0E0],"parents":[2147483647,0,0,1,1,2,2,3,3,4,4,5,5,6,6,7,7,8,8,9,9,10,10,11,11,12,12,13,13,14,14,15,15,17,17,18,18,19,19,20,20,21,21,22,22,23,23,24,24,25,25,26,26,27,27,28,28,29,29,30,30],"right_children":[2,4,6,8,10,12,14,16,18,20,22,24,26,28,30,32,-1,34,36,38,40,42,44,46,48,50,52,54,56,58,60,-1,-1,-1,-1,-1,-1,-1,-1,-1,-1,-1,-1,-1,-1,-1,-1,-1,-1,-1,-1,-1,-1,-1,-1,-1,-1,-1,-1,-1,-1],"split_conditions":[1.4910537E-1,-1.3884798E0,-3.6519177E-2,-8.836066E-1,8.891204E7,-9.628614E-2,4.6662107E-1,-4.8136708E-1,-6.118497E-1,-1.0145553E-1,4.134341E0,1.1377032E10,2.771E1,2.5137566E10,-6.170239E-1,1.4931387E8,3.2578852E-2,-1.5008672E0,8.2851183E-1,-2.0773555E-1,1.3180038E0,-1.4853983E0,3.5243335E-3,1E0,-6.671001E-2,1.2737361E8,-2.4996385E-1,2.188E1,1.5255618E0,2.177E1,9.042316E-1,6.352275E-3,-8.134997E-2,-1.6522465E-2,5.745501E-2,1.8043589E-2,2.845329E-3,-5.520867E-4,1.266356E-2,-4.856261E-3,5.4862242E-2,1.1737721E-2,-6.1566117E-3,4.6270166E-2,-4.7514862E-3,-8.054465E-3,-9.343976E-4,3.380583E-2,-5.8242824E-2,8.722753E-3,-3.2112555E-4,3.4037914E-2,-8.6312306E-5,1.2473981E-3,-5.795609E-3,-5.6626517E-2,2.2963951E-4,-8.926091E-3,2.2080222E-2,8.000943E-3,1.272168E-3],"split_indices":[1,15,20,18,2,12,14,12,18,14,24,2,27,2,15,2,0,14,24,6,4,17,25,29,16,2,14,27,19,27,15,0,0,0,0,0,0,0,0,0,0,0,0,0,0,0,0,0,0,0,0,0,0,0,0,0,0,0,0,0,0],"split_type":[0,0,0,0,0,0,0,0,0,0,0,0,0,0,0,0,0,0,0,0,0,0,0,0,0,0,0,0,0,0,0,0,0,0,0,0,0,0,0,0,0,0,0,0,0,0,0,0,0,0,0,0,0,0,0,0,0,0,0,0,0],"sum_hessian":[5.9842445E4,8.824487E3,5.101796E4,7.652774E2,8.05921E3,2.3670963E4,2.7346996E4,2.8645744E1,7.3663165E2,2.9308213E3,5.1283887E3,1.31974375E4,1.0473525E4,2.011781E4,7.229186E3,1.992448E1,8.721264E0,2.7912289E1,7.0871936E2,1.4023578E3,1.5284635E3,5.0964443E3,3.1944359E1,1.3142503E4,5.493464E1,1.0081394E4,3.9213138E2,2.0045906E4,7.190394E1,5.6482806E2,6.664358E3,5.240786E0,1.4683694E1,5.4710684E0,2.2441221E1,1.7597803E2,5.3274133E2,1.0485995E3,3.537583E2,1.5177217E3,1.0741771E1,7.635186E1,5.0200923E3,2.096325E1,1.0981109E1,2.584229E3,1.0558273E4,6.491907E0,4.8442734E1,1.1053105E3,8.976083E3,2.2874092E2,1.6339046E2,1.8474004E4,1.5719034E3,4.1116924E1,3.0787012E1,4.952373E2,6.95908E1,4.297387E3,2.3669707E3],"tree_param":{"num_deleted":"0","num_feature":"30","num_nodes":"61","size_leaf_vector":"1"}},{"base_weights":[-1.083397E-3,-2.3966603E-2,3.387987E-2,-2.1358108E-2,-1.1841347E0,-7.3907482E-3,5.6278624E-2,-2.4776919E-2,2.1895984E-1,-6.1744757E-2,-1.7065233E-2,-1.175688E-2,3.8463774E-1,-4.4260826E-2,7.337261E-2,-1.4773918E-2,-8.260023E-2,2.545709E-1,-4.5374343E-1,3.7246658E-3,-1.3259564E-1,-3.3282027E-2,4.872682E-1,3.1852984E-1,-6.363274E-2,1.7833862E-1,5.8449306E-2,1.5923271E-2,-8.648766E-4,-8.532888E-3,-7.152203E-4,7.770927E-3,2.7215524E-2,-3.6467317E-2,1.8738756E-2,-1.4996624E-3,3.3568523E-3,1.2431289E-2,-9.309359E-3,7.029424E-3,4.0509727E-2,4.556088E-2,6.512293E-3,4.1197627E-3,-5.656996E-3,9.540229E-3,-4.2372096E-2,2.6982017E-3,2.057678E-2],"categories":[],"categories_nodes":[],"categories_segments":[],"categories_sizes":[],"default_left":[0,0,0,0,0,0,0,0,0,0,0,0,0,0,0,0,0,0,0,0,0,0,0,0,0,0,0,0,0,0,0,0,0,0,0,0,0,0,0,0,0,0,0,0,0,0,0,0,0],"id":20,"left_children":[1,3,5,7,9,11,13,15,17,-1,-1,19,21,23,25,27,29,31,33,35,37,-1,39,41,43,45,47,-1,-1,-1,-1,-1,-1,-1,-1,-1,-1,-1,-1,-1,-1,-1,-1,-1,-1,-1,-1,-1,-1],"loss_changes":[4.795699E1,1.0950158E2,2.192353E1,2.9688068E1,2.8937683E0,1.4243433E1,2.6422855E1,2.0606722E1,1.2235729E1,0E0,0E0,1.5447185E1,1.0185082E1,1.5691027E1,2.0546516E1,2.5533516E1,3.1584335E1,1.3694744E1,6.1764445E0,1.5642497E1,1.9197247E1,0E0,9.211994E0,1.2400262E1,1.5348094E1,2.0991825E1,1.8152172E1,0E0,0E0,0E0,0E0,0E0,0E0,0E0,0E0,0E0,0E0,0E0,0E0,0E0,0E0,0E0,0E0,0E0,0E0,0E0,0E0,0E0,0E0],"parents":[2147483647,0,0,1,1,2,2,3,3,4,4,5,5,6,6,7,7,8,8,11,11,12,12,13,13,14,14,15,15,16,16,17,17,18,18,19,19,20,20,22,22,23,23,24,24,25,25,26,26],"right_children":[2,4,6,8,10,12,14,16,18,-1,-1,20,22,24,26,28,30,32,34,36,38,-1,40,42,44,46,48,-1,-1,-1,-1,-1,-1,-1,-1,-1,-1,-1,-1,-1,-1,-1,-1,-1,-1,-1,-1,-1,-1],"split_conditions":[1.4408119E-2,9.95992E-1,4.22E-1,2.2312105E0,-6.1553895E-1,4.134341E0,-9.331712E-1,2.3358448E0,9.164056E-1,-6.1744757E-2,-1.7065233E-2,4.2767578E8,1.8567722E-1,-2.0646198E0,4.5725647E-1,-2.0646198E0,-2.1560222E-1,1.0944312E0,2.5304656E0,7.7859294E-1,-1.1240604E-1,-3.3282027E-2,-6.158531E-1,8.4599835E-1,-6.425985E-1,2.9211967E0,3.7103603E0,1.5923271E-2,-8.648766E-4,-8.532888E-3,-7.152203E-4,7.770927E-3,2.7215524E-2,-3.6467317E-2,1.8738756E-2,-1.4996624E-3,3.3568523E-3,1.2431289E-2,-9.309359E-3,7.029424E-3,4.0509727E-2,4.556088E-2,6.512293E-3,4.1197627E-3,-5.656996E-3,9.540229E-3,-4.2372096E-2,2.6982017E-3,2.057678E-2],"split_indices":[19,3,1,15,12,24,14,24,16,0,0,2,19,15,3,15,8,7,14,19,26,0,9,24,20,18,18,0,0,0,0,0,0,0,0,0,0,0,0,0,0,0,0,0,0,0,0,0,0],"split_type":[0,0,0,0,0,0,0,0,0,0,0,0,0,0,0,0,0,0,0,0,0,0,0,0,0,0,0,0,0,0,0,0,0,0,0,0,0,0,0,0,0,0,0,0,0,0,0,0,0],"sum_hessian":[5.9940094E4,3.62306E4,2.3709492E4,3.6150426E4,8.0175156E1,8.339615E3,1.5369876E4,3.5644652E4,5.0577478E2,7.5070145E1,5.10501E0,8.24897E3,9.064602E1,2.2324033E3,1.3137473E4,3.0390336E4,5.254316E3,4.8107803E2,2.4696733E1,7.3122812E3,9.3668866E2,7.4941173E0,8.31519E1,1.121166E2,2.1202866E3,1.6330988E3,1.1504374E4,2.271768E2,3.0163158E4,2.2938135E3,2.9605022E3,3.598236E2,1.2125444E2,1.8712502E1,5.984233E0,4.7732026E3,2.5390784E3,1.14770134E2,8.219185E2,4.0942657E1,4.220924E1,2.5976387E1,8.614021E1,5.3615173E2,1.584135E3,1.6143911E3,1.8707682E1,1.1361484E4,1.4288948E2],"tree_param":{"num_deleted":"0","num_feature":"30","num_nodes":"49","size_leaf_vector":"1"}},{"base_weights":[-3.4977437E-4,-2.1959055E-2,3.868624E-2,-1.970482E-2,-1.1443834E0,2.1756268E-1,3.374418E-2,-2.3004172E-2,2.1432085E-1,-6.0941096E-2,-1.7334346E-2,1.672307E-1,7.782786E-1,7.7360207E-3,6.644616E-2,-8.020556E-2,-1.029175E-2,2.518981E-1,-8.022696E-1,-7.8064877E-1,1.9429341E-1,4.463554E-1,1.3584328E0,6.790414E-2,-1.7511727E-2,1.5786648E-1,4.5897875E-2,-1.3272444E-2,3.0216363E-3,-3.5885859E-3,6.579019E-4,7.30358E-3,2.6059685E-2,-5.856805E-2,-6.2232795E-3,1.0039682E-2,-7.689762E-2,1.1672451E-2,-2.7703935E-2,-2.4559725E-2,4.3875955E-2,4.0348638E-2,7.6767586E-2,1.287657E-2,1.5596831E-3,-4.606847E-3,2.2123454E-4,1.2050465E-2,7.331958E-4,4.0482595E-3,-7.73677E-4],"categories":[],"categories_nodes":[],"categories_segments":[],"categories_sizes":[],"default_left":[0,0,0,0,0,0,0,0,0,0,0,0,0,0,0,0,0,0,0,0,0,0,0,0,0,0,0,0,0,0,0,0,0,0,0,0,0,0,0,0,0,0,0,0,0,0,0,0,0,0,0],"id":21,"left_children":[1,3,5,7,9,11,13,15,17,-1,-1,19,21,23,25,27,29,31,33,35,37,39,41,43,45,47,49,-1,-1,-1,-1,-1,-1,-1,-1,-1,-1,-1,-1,-1,-1,-1,-1,-1,-1,-1,-1,-1,-1,-1,-1],"loss_changes":[5.0549355E1,9.7464935E1,1.8842884E1,2.9712324E1,4.0056763E0,1.5955687E1,1.7665363E1,2.7597311E1,2.058064E1,0E0,0E0,1.3625566E1,8.2228985E0,1.759317E1,1.7261074E1,1.798406E2,4.479251E1,1.4582092E1,4.5307655E0,1.1398244E1,1.5153118E1,1.3146404E1,1.2954521E-1,2.379456E1,1.3358541E1,2.0064774E1,1.6184578E1,0E0,0E0,0E0,0E0,0E0,0E0,0E0,0E0,0E0,0E0,0E0,0E0,0E0,0E0,0E0,0E0,0E0,0E0,0E0,0E0,0E0,0E0,0E0,0E0],"parents":[2147483647,0,0,1,1,2,2,3,3,4,4,5,5,6,6,7,7,8,8,11,11,12,12,13,13,14,14,15,15,16,16,17,17,18,18,19,19,20,20,21,21,22,22,23,23,24,24,25,25,26,26],"right_children":[2,4,6,8,10,12,14,16,18,-1,-1,20,22,24,26,28,30,32,34,36,38,40,42,44,46,48,50,-1,-1,-1,-1,-1,-1,-1,-1,-1,-1,-1,-1,-1,-1,-1,-1,-1,-1,-1,-1,-1,-1,-1,-1],"split_conditions":[1.0172438E-1,9.95992E-1,-6.4522994E-1,2.2312105E0,-6.4138865E-1,2.316E1,2.4835732E1,1E0,1.2308719E0,-6.0941096E-2,-1.7334346E-2,3.392347E-1,-6.995797E-4,1.6093197E8,3.508627E8,-3.7155327E-1,-4.738745E-1,1.77E1,-2.1641916E-1,2.441641E0,3.8718643E0,-6.2597835E-1,5.613E-1,-8.41425E-1,2.3716505E1,-6.989819E-3,2.8747422E-1,-1.3272444E-2,3.0216363E-3,-3.5885859E-3,6.579019E-4,7.30358E-3,2.6059685E-2,-5.856805E-2,-6.2232795E-3,1.0039682E-2,-7.689762E-2,1.1672451E-2,-2.7703935E-2,-2.4559725E-2,4.3875955E-2,4.0348638E-2,7.6767586E-2,1.287657E-2,1.5596831E-3,-4.606847E-3,2.2123454E-4,1.2050465E-2,7.331958E-4,4.0482595E-3,-7.73677E-4],"split_indices":[19,3,26,15,12,27,0,29,10,0,0,24,22,2,2,18,15,27,19,12,19,8,13,15,0,18,21,0,0,0,0,0,0,0,0,0,0,0,0,0,0,0,0,0,0,0,0,0,0,0,0],"split_type":[0,0,0,0,0,0,0,0,0,0,0,0,0,0,0,0,0,0,0,0,0,0,0,0,0,0,0,0,0,0,0,0,0,0,0,0,0,0,0,0,0,0,0,0,0,0,0,0,0,0,0],"sum_hessian":[5.9925223E4,3.8574453E4,2.1350771E4,3.849824E4,7.621173E1,5.7232654E2,2.0778445E4,3.796434E4,5.339015E2,6.910938E1,7.1023545E0,5.26539E2,4.578754E1,1.1576141E4,9.202306E3,6.9006567E3,3.1063682E4,5.156901E2,1.821138E1,1.3740286E1,5.127987E2,3.0359642E1,1.5427898E1,3.4224182E3,8.153722E3,1.686672E3,7.515634E3,2.9779885E3,3.922668E3,8.577541E3,2.248614E4,3.715815E2,1.4410858E2,1.1223844E1,6.9875364E0,6.247076E0,7.4932103E0,4.8808334E2,2.4715357E1,9.446785E0,2.0912857E1,5.235433E0,1.0192466E1,5.53676E2,2.8687422E3,1.8526328E3,6.3010894E3,1.0662375E3,6.2043445E2,4.7836123E3,2.7320215E3],"tree_param":{"num_deleted":"0","num_feature":"30","num_nodes":"51","size_leaf_vector":"1"}},{"base_weights":[1.5886398E-3,-1.1491115E-2,5.8268603E-2,-1.0107033E-2,-1.0623634E0,9.840163E-2,1.901969E-2,-1.3627044E-2,1.6719407E-1,-5.9582867E-2,-1.2071774E-3,7.50249E-2,3.0918577E-1,-2.729686E-1,3.1113617E-2,-1.6348185E-2,2.2325994E-1,3.104947E-1,-1.0983986E-2,3.2425502E-1,6.2009983E-2,-1.20369315E-1,5.1983094E-1,-2.0719545E-1,-7.4647707E-1,1.7194014E-2,1.9830759E-1,-7.9304865E-4,-6.0299456E-2,6.830712E-3,2.2798939E-2,7.352788E-2,1.4275265E-2,-2.1253768E-2,3.4474272E-3,-2.2465028E-2,1.8471278E-2,8.846442E-3,1.934807E-3,5.295921E-2,-8.869351E-3,3.1864937E-2,5.844271E-3,1.5893295E-2,-1.331047E-2,-5.429967E-2,-4.997681E-3,-4.8410203E-3,2.203494E-3,6.914752E-3,3.3012386E-2],"categories":[],"categories_nodes":[],"categories_segments":[],"categories_sizes":[],"default_left":[0,0,0,0,0,0,0,0,0,0,0,0,0,0,0,0,0,0,0,0,0,0,0,0,0,0,0,0,0,0,0,0,0,0,0,0,0,0,0,0,0,0,0,0,0,0,0,0,0,0,0],"id":22,"left_children":[1,3,5,7,9,11,13,15,17,-1,-1,19,21,23,25,27,29,31,33,35,37,39,41,43,45,47,49,-1,-1,-1,-1,-1,-1,-1,-1,-1,-1,-1,-1,-1,-1,-1,-1,-1,-1,-1,-1,-1,-1,-1,-1],"loss_changes":[4.442582E1,7.069049E1,1.7685036E1,3.033052E1,8.43129E0,2.7304989E1,2.00528E1,3.071417E1,2.4187386E1,0E0,0E0,1.6163727E1,5.020432E1,6.7822933E0,1.2677898E1,2.7178246E1,1.0788717E1,1.4613949E1,1.40439415E1,8.809135E0,1.2710169E1,1.2396911E1,1.7451721E1,6.2713623E0,5.6928787E0,1.5443985E1,1.1440302E1,0E0,0E0,0E0,0E0,0E0,0E0,0E0,0E0,0E0,0E0,0E0,0E0,0E0,0E0,0E0,0E0,0E0,0E0,0E0,0E0,0E0,0E0,0E0,0E0],"parents":[2147483647,0,0,1,1,2,2,3,3,4,4,5,5,6,6,7,7,8,8,11,11,12,12,13,13,14,14,15,15,16,16,17,17,18,18,19,19,20,20,21,21,22,22,23,23,24,24,25,25,26,26],"right_children":[2,4,6,8,10,12,14,16,18,-1,-1,20,22,24,26,28,30,32,34,36,38,40,42,44,46,48,50,-1,-1,-1,-1,-1,-1,-1,-1,-1,-1,-1,-1,-1,-1,-1,-1,-1,-1,-1,-1,-1,-1,-1,-1],"split_conditions":[6.098796E-1,2.5137566E10,1.6008472E0,2.7383522E1,2.7383522E1,2.17E1,1.6774684E0,2.407613E0,1.2161932E0,-5.9582867E-2,-1.2071774E-3,-9.621385E-1,-3.153416E-1,1.2443213E0,2.588467E0,1.1377032E10,1.779E1,-1.366069E0,-5.078427E-1,4.2940277E-1,1.6558387E8,9.353872E-1,2.914466E-1,1.478512E8,2.431998E0,2.4652088E-1,1.9510566E0,-7.9304865E-4,-6.0299456E-2,6.830712E-3,2.2798939E-2,7.352788E-2,1.4275265E-2,-2.1253768E-2,3.4474272E-3,-2.2465028E-2,1.8471278E-2,8.846442E-3,1.934807E-3,5.295921E-2,-8.869351E-3,3.1864937E-2,5.844271E-3,1.5893295E-2,-1.331047E-2,-5.429967E-2,-4.997681E-3,-4.8410203E-3,2.203494E-3,6.914752E-3,3.3012386E-2],"split_indices":[19,2,24,0,0,27,24,15,24,0,0,12,12,15,12,2,27,8,19,13,2,4,26,2,9,1,7,0,0,0,0,0,0,0,0,0,0,0,0,0,0,0,0,0,0,0,0,0,0,0,0],"split_type":[0,0,0,0,0,0,0,0,0,0,0,0,0,0,0,0,0,0,0,0,0,0,0,0,0,0,0,0,0,0,0,0,0,0,0,0,0,0,0,0,0,0,0,0,0,0,0,0,0,0,0],"sum_hessian":[5.991654E4,4.868157E4,1.1234972E4,4.861864E4,6.2929817E1,5.5529165E3,5.6820557E3,4.767365E4,9.449916E2,5.5743717E1,7.186103E0,5.000206E3,5.527107E2,2.247994E2,5.4572563E3,4.7133574E4,5.400743E2,5.236567E2,4.2133493E2,2.465863E2,4.7536196E3,1.8184328E2,3.708674E2,1.9882956E2,2.5969841E1,5.0394053E3,4.1785083E2,4.7115375E4,1.8198503E1,3.9501813E2,1.4505614E2,9.738213E0,5.1391846E2,6.7675316E1,3.536596E2,1.2988844E1,2.3359746E2,7.998942E2,3.9537253E3,7.4933987E0,1.7434988E2,2.8651266E2,8.435473E1,1.9475E1,1.7935455E2,1.6480717E1,9.489124E0,9.6009766E2,4.0793076E3,3.7114917E2,4.6701668E1],"tree_param":{"num_deleted":"0","num_feature":"30","num_nodes":"51","size_leaf_vector":"1"}},{"base_weights":[1.3654323E-3,-1.7553115E-2,3.1770144E-2,1.0480833E-2,-4.033088E-2,9.381133E-2,3.6157079E-3,-4.1015018E-2,3.886539E-2,-6.076112E-2,2.4793711E-3,4.8666E-3,1.2536922E-1,-2.4361758E-2,6.367261E-2,-8.6766824E-2,1.2867959E-2,3.3502094E-2,5.211616E-1,-9.7345665E-2,-4.136765E-2,3.4243844E-2,-8.2962275E-2,-1.1518112E-1,9.953791E-2,6.9330126E-1,1.20331615E-1,1.9804305E-1,-3.559192E-2,9.564587E-2,-2.0547277E-1,-1.6262728E-5,-6.709342E-3,-1.9833997E-3,3.903078E-3,3.997518E-4,5.378287E-3,-4.3145893E-3,3.844838E-2,-4.985287E-3,3.9481174E-2,-1.5384184E-2,-1.7713E-3,3.602527E-3,-3.673213E-3,4.9821164E-2,-4.436874E-3,1.2013214E-2,-8.066965E-3,3.6637788E-3,3.4930106E-2,4.6835855E-2,-2.5016128E-3,6.8742717E-3,-2.25491E-3,-1.7845128E-2,1.2384766E-2,-4.4702847E-6,-5.551509E-3,-5.2586948E-3,6.2440205E-3,-4.0962897E-2,-2.1524176E-3],"categories":[],"categories_nodes":[],"categories_segments":[],"categories_sizes":[],"default_left":[0,0,0,0,0,0,0,0,0,0,0,0,0,0,0,0,0,0,0,0,0,0,0,0,0,0,0,0,0,0,0,0,0,0,0,0,0,0,0,0,0,0,0,0,0,0,0,0,0,0,0,0,0,0,0,0,0,0,0,0,0,0,0],"id":23,"left_children":[1,3,5,7,9,11,13,15,17,19,21,23,25,27,29,31,33,35,37,39,41,43,45,47,49,51,53,55,57,59,61,-1,-1,-1,-1,-1,-1,-1,-1,-1,-1,-1,-1,-1,-1,-1,-1,-1,-1,-1,-1,-1,-1,-1,-1,-1,-1,-1,-1,-1,-1,-1,-1],"loss_changes":[3.4468678E1,2.3588587E1,4.013932E1,2.4201342E1,1.7831081E1,2.0122303E1,2.6574596E1,1.450976E1,2.7539827E1,9.771755E0,1.7865284E1,2.1382616E1,1.4981865E1,2.693281E1,4.3265804E1,1.3030931E1,9.257818E0,1.9934652E1,1.7766157E1,1.0011024E1,1.4229547E1,1.9554203E1,1.1116153E1,1.3634526E1,1.6428993E1,8.488071E0,1.4910759E1,1.435676E1,2.7493832E1,2.6398712E1,5.3087997E1,0E0,0E0,0E0,0E0,0E0,0E0,0E0,0E0,0E0,0E0,0E0,0E0,0E0,0E0,0E0,0E0,0E0,0E0,0E0,0E0,0E0,0E0,0E0,0E0,0E0,0E0,0E0,0E0,0E0,0E0,0E0,0E0],"parents":[2147483647,0,0,1,1,2,2,3,3,4,4,5,5,6,6,7,7,8,8,9,9,10,10,11,11,12,12,13,13,14,14,15,15,16,16,17,17,18,18,19,19,20,20,21,21,22,22,23,23,24,24,25,25,26,26,27,27,28,28,29,29,30,30],"right_children":[2,4,6,8,10,12,14,16,18,20,22,24,26,28,30,32,34,36,38,40,42,44,46,48,50,52,54,56,58,60,62,-1,-1,-1,-1,-1,-1,-1,-1,-1,-1,-1,-1,-1,-1,-1,-1,-1,-1,-1,-1,-1,-1,-1,-1,-1,-1,-1,-1,-1,-1,-1,-1],"split_conditions":[6.1706346E-1,1.5072309E8,3.6667715E8,2.3439442E1,9.5413804E-1,-3.3396584E-1,2.6214651E1,5.1557875E-1,2.1308482E0,3.2934132E-1,6.8787277E-1,-3.657611E-1,-1.2482078E0,-9.661178E-3,9.92E-1,-3.788354E-1,8.007448E-4,6.71526E-2,3.9174095E-1,2.0373512E-2,-1.3553926E0,7.512098E-1,-4.589017E-1,3.253493E-1,2.409E1,2.623794E0,6.489173E-1,-6.564523E-1,8.548708E-1,-9.6100545E-1,6.2949206E-3,-1.6262728E-5,-6.709342E-3,-1.9833997E-3,3.903078E-3,3.997518E-4,5.378287E-3,-4.3145893E-3,3.844838E-2,-4.985287E-3,3.9481174E-2,-1.5384184E-2,-1.7713E-3,3.602527E-3,-3.673213E-3,4.9821164E-2,-4.436874E-3,1.2013214E-2,-8.066965E-3,3.6637788E-3,3.4930106E-2,4.6835855E-2,-2.5016128E-3,6.8742717E-3,-2.25491E-3,-1.7845128E-2,1.2384766E-2,-4.4702847E-6,-5.551509E-3,-5.2586948E-3,6.2440205E-3,-4.0962897E-2,-2.1524176E-3],"split_indices":[1,2,2,0,4,5,0,4,8,1,3,18,20,25,3,14,25,18,7,25,18,21,19,3,27,24,18,18,3,18,19,0,0,0,0,0,0,0,0,0,0,0,0,0,0,0,0,0,0,0,0,0,0,0,0,0,0,0,0,0,0,0,0],"split_type":[0,0,0,0,0,0,0,0,0,0,0,0,0,0,0,0,0,0,0,0,0,0,0,0,0,0,0,0,0,0,0,0,0,0,0,0,0,0,0,0,0,0,0,0,0,0,0,0,0,0,0,0,0,0,0,0,0,0,0,0,0,0,0],"sum_hessian":[5.9918895E4,3.6934492E4,2.2984402E4,1.6555188E4,2.0379305E4,7.172711E3,1.581169E4,5.88128E3,1.0673907E4,1.3796938E4,6.582366E3,1.8795608E3,5.2931504E3,1.0785979E4,5.0257114E3,3.1812983E3,2.6999814E3,1.0557778E4,1.16129234E2,4.776742E3,9.020196E3,4.799744E3,1.782622E3,8.281519E2,1.0514089E3,4.5162117E1,5.2479883E3,5.1722327E2,1.0268756E4,4.492982E3,5.327298E2,1.1280679E3,2.0532307E3,1.494502E3,1.2054796E3,7.8550166E3,2.7027612E3,3.3719635E1,8.24096E1,4.7650635E3,1.1678658E1,1.9537793E2,8.824818E3,3.5536387E3,1.2461058E3,8.482011E0,1.7741399E3,9.445105E1,7.3370087E2,1.0084871E3,4.2921764E1,3.392668E1,1.12354355E1,4.755638E3,4.9235004E2,4.180308E1,4.754202E2,6.9842007E3,3.284555E3,5.701886E2,3.9227932E3,1.10500435E2,4.2222934E2],"tree_param":{"num_deleted":"0","num_feature":"30","num_nodes":"63","size_leaf_vector":"1"}},{"base_weights":[-8.595356E-4,-2.8126152E-2,1.7725265E-2,-2.1721544E-3,-5.154691E-2,4.0327504E-1,1.587558E-2,6.8140715E-2,-2.6289612E-2,6.630292E-2,-6.4413376E-2,8.00975E-1,1.6481446E-1,1.4152141E-2,4.22879E-1,2.7609402E-1,4.256138E-2,-1.2290919E-1,4.052129E-4,2.1451074E-3,3.9190698E-1,-6.793176E-2,3.588864E-1,3.7165138E-1,1.2520248E0,6.0390717E-1,-4.2109326E-2,3.7132572E-2,-1.6896863E-2,2.4914144E-1,9.46181E-1,1.833668E-2,-1.3871068E-2,2.4427054E-4,1.1858973E-2,-2.8153504E-3,-1.0647198E-2,-1.1141291E-3,5.36124E-3,-5.7645063E-3,4.1179573E-3,2.2188138E-2,-2.9449165E-2,-4.3891566E-3,-8.942261E-4,7.681073E-3,4.819989E-2,4.2210814E-2,-1.3847298E-2,7.408654E-2,3.2141343E-2,-2.583169E-2,4.236489E-2,-5.087323E-2,2.2864216E-3,8.026218E-4,5.0139916E-3,-2.9824937E-3,2.1931143E-3,1.5951438E-2,-4.6866976E-2,5.591427E-2,1.9089138E-2],"categories":[],"categories_nodes":[],"categories_segments":[],"categories_sizes":[],"default_left":[0,0,0,0,0,0,0,0,0,0,0,0,0,0,0,0,0,0,0,0,0,0,0,0,0,0,0,0,0,0,0,0,0,0,0,0,0,0,0,0,0,0,0,0,0,0,0,0,0,0,0,0,0,0,0,0,0,0,0,0,0,0,0],"id":24,"left_children":[1,3,5,7,9,11,13,15,17,19,21,23,25,27,29,31,33,35,37,39,41,43,45,47,49,51,53,55,57,59,61,-1,-1,-1,-1,-1,-1,-1,-1,-1,-1,-1,-1,-1,-1,-1,-1,-1,-1,-1,-1,-1,-1,-1,-1,-1,-1,-1,-1,-1,-1,-1,-1],"loss_changes":[3.0385805E1,1.4769119E1,2.5378807E1,1.9553991E1,1.9373997E1,1.5887741E1,2.4841747E1,1.5619646E1,2.2165054E1,2.622094E1,1.7149792E1,1.1627102E1,9.863006E0,2.521671E1,1.32232895E1,1.6261454E1,1.921262E1,1.1115263E1,1.6320438E1,9.910777E0,1.0759018E1,1.1338058E1,1.1524173E1,1.0699047E1,3.078701E0,9.935236E0,6.47942E0,2.7021885E1,3.904416E1,9.659056E0,2.9903374E0,0E0,0E0,0E0,0E0,0E0,0E0,0E0,0E0,0E0,0E0,0E0,0E0,0E0,0E0,0E0,0E0,0E0,0E0,0E0,0E0,0E0,0E0,0E0,0E0,0E0,0E0,0E0,0E0,0E0,0E0,0E0,0E0],"parents":[2147483647,0,0,1,1,2,2,3,3,4,4,5,5,6,6,7,7,8,8,9,9,10,10,11,11,12,12,13,13,14,14,15,15,16,16,17,17,18,18,19,19,20,20,21,21,22,22,23,23,24,24,25,25,26,26,27,27,28,28,29,29,30,30],"right_children":[2,4,6,8,10,12,14,16,18,20,22,24,26,28,30,32,34,36,38,40,42,44,46,48,50,52,54,56,58,60,62,-1,-1,-1,-1,-1,-1,-1,-1,-1,-1,-1,-1,-1,-1,-1,-1,-1,-1,-1,-1,-1,-1,-1,-1,-1,-1,-1,-1,-1,-1,-1,-1],"split_conditions":[4.0674603E-1,1.3137653E8,-2.221454E0,-5.0233614E-1,4.507726E-1,5.620356E8,4.0707765E0,5.3847332E7,-8.9809275E-1,4.8058492E-1,4.134341E0,5.5069584E-1,-3.98203E-1,7.3E-1,1.206765E0,2.94E-1,3.7481692E-1,1.0714286E-1,7.158928E-1,-3.6434853E-1,7.6540756E-1,4.5448822E-1,2.82E-1,-3.0350366E-1,1.3892547E0,6.608992E8,-2.919189E-1,7.1031743E-1,8.94E-1,7.4623424E-1,6.441352E-1,1.833668E-2,-1.3871068E-2,2.4427054E-4,1.1858973E-2,-2.8153504E-3,-1.0647198E-2,-1.1141291E-3,5.36124E-3,-5.7645063E-3,4.1179573E-3,2.2188138E-2,-2.9449165E-2,-4.3891566E-3,-8.942261E-4,7.681073E-3,4.819989E-2,4.2210814E-2,-1.3847298E-2,7.408654E-2,3.2141343E-2,-2.583169E-2,4.236489E-2,-5.087323E-2,2.2864216E-3,8.026218E-4,5.0139916E-3,-2.9824937E-3,2.1931143E-3,1.5951438E-2,-4.6866976E-2,5.591427E-2,1.9089138E-2],"split_indices":[1,2,15,14,7,2,18,2,19,20,24,1,20,3,7,1,11,3,14,19,3,18,1,11,24,2,20,1,1,20,1,0,0,0,0,0,0,0,0,0,0,0,0,0,0,0,0,0,0,0,0,0,0,0,0,0,0,0,0,0,0,0,0],"split_type":[0,0,0,0,0,0,0,0,0,0,0,0,0,0,0,0,0,0,0,0,0,0,0,0,0,0,0,0,0,0,0,0,0,0,0,0,0,0,0,0,0,0,0,0,0,0,0,0,0,0,0,0,0,0,0,0,0,0,0,0,0,0,0],"sum_hessian":[5.9958723E4,2.4304838E4,3.5653883E4,1.1531466E4,1.2773372E4,1.6893936E2,3.548494E4,2.9436055E3,8.58786E3,1.256115E3,1.1517258E4,6.2284378E1,1.0665499E2,3.5336594E4,1.4835074E2,3.2091855E2,2.622687E3,1.8591116E3,6.728749E3,1.0504462E3,2.0566875E2,1.1423384E4,9.38732E1,3.29588E1,2.9325579E1,3.3702652E1,7.295233E1,2.0308559E4,1.5028034E4,1.12625854E2,3.5724876E1,2.7620706E2,4.471151E1,2.1986003E3,4.240865E2,1.0701882E3,7.8892334E2,5.5498516E3,1.1788976E3,4.2562997E2,6.248162E2,1.9595872E2,9.710024E0,8.1771455E3,3.2462385E3,7.115518E1,2.2718018E1,1.8981527E1,1.3977274E1,2.0136452E1,9.189127E0,5.7405124E0,2.7962141E1,5.2467823E0,6.770555E1,1.5227932E4,5.080627E3,8.822071E3,6.205963E3,1.0713092E2,5.494938E0,2.6488934E1,9.235942E0],"tree_param":{"num_deleted":"0","num_feature":"30","num_nodes":"63","size_leaf_vector":"1"}},{"base_weights":[3.342102E-3,-8.091783E-3,5.2772753E-2,-6.914477E-3,-9.348426E-1,9.0144165E-2,1.5678428E-2,-1.1819739E-2,1.19242445E-1,-1.1380999E0,4.4431698E-2,7.4128985E-2,3.1726792E-1,-3.1259862E-1,2.674164E-2,-1.380109E-2,2.2519116E-1,4.5715088E-1,7.733887E-2,-2.7011266E-2,-5.9263807E-2,1.1193993E-1,-4.351491E-3,-1.2151379E-1,6.164298E-1,-5.9604138E-2,-2.7961698E-1,-3.5784516E-2,5.620994E-2,-1.0697308E-3,2.0671112E-3,5.2584186E-3,2.7640477E-2,4.398968E-2,1.5937159E-2,5.1161563E-3,-9.148471E-3,3.8224816E-2,5.3692567E-3,-2.8436587E-3,6.591476E-3,8.861873E-3,-2.2631546E-2,4.5739297E-2,1.0243937E-2,7.3669218E-3,-1.7603345E-2,2.9260789E-3,-6.9600693E-3,-2.2219913E-3,4.286218E-3],"categories":[],"categories_nodes":[],"categories_segments":[],"categories_sizes":[],"default_left":[0,0,0,0,0,0,0,0,0,0,0,0,0,0,0,0,0,0,0,0,0,0,0,0,0,0,0,0,0,0,0,0,0,0,0,0,0,0,0,0,0,0,0,0,0,0,0,0,0,0,0],"id":25,"left_children":[1,3,5,7,9,11,13,15,17,19,-1,21,23,25,27,29,31,33,35,-1,-1,37,39,41,43,-1,45,47,49,-1,-1,-1,-1,-1,-1,-1,-1,-1,-1,-1,-1,-1,-1,-1,-1,-1,-1,-1,-1,-1,-1],"loss_changes":[3.3909477E1,5.3054558E1,1.5612759E1,3.0101675E1,2.3903057E1,2.035432E1,2.0532383E1,2.1977324E1,2.5687845E1,7.665405E-1,0E0,1.557543E1,4.8562492E1,4.864935E0,1.0093415E1,1.9449566E1,1.513089E1,1.1321175E1,1.0553414E1,0E0,0E0,1.03541565E1,1.2198274E1,1.4975115E1,2.6678627E1,0E0,5.6104746E0,1.7118473E1,1.1068216E1,0E0,0E0,0E0,0E0,0E0,0E0,0E0,0E0,0E0,0E0,0E0,0E0,0E0,0E0,0E0,0E0,0E0,0E0,0E0,0E0,0E0,0E0],"parents":[2147483647,0,0,1,1,2,2,3,3,4,4,5,5,6,6,7,7,8,8,9,9,11,11,12,12,13,13,14,14,15,15,16,16,17,17,18,18,21,21,22,22,23,23,24,24,26,26,27,27,28,28],"right_children":[2,4,6,8,10,12,14,16,18,20,-1,22,24,26,28,30,32,34,36,-1,-1,38,40,42,44,-1,46,48,50,-1,-1,-1,-1,-1,-1,-1,-1,-1,-1,-1,-1,-1,-1,-1,-1,-1,-1,-1,-1,-1,-1],"split_conditions":[6.098796E-1,